digraph Tree {
node [shape=box] ;
0 [label="X[67] <= 399.884\nmse = 1165.039\nsamples = 17010\nvalue = 34.336"] ;
1 [label="X[31] <= 5725.958\nmse = 114.637\nsamples = 8551\nvalue = 9.541"] ;
0 -> 1 [labeldistance=2.5, labelangle=45, headlabel="True"] ;
2 [label="X[35] <= 1.081\nmse = 192.751\nsamples = 3177\nvalue = 15.622"] ;
1 -> 2 ;
3 [label="X[2] <= 16.707\nmse = 143.073\nsamples = 2002\nvalue = 11.722"] ;
2 -> 3 ;
4 [label="X[56] <= 0.638\nmse = 357.217\nsamples = 245\nvalue = 23.623"] ;
3 -> 4 ;
5 [label="X[70] <= 33.572\nmse = 251.511\nsamples = 244\nvalue = 22.961"] ;
4 -> 5 ;
6 [label="X[29] <= 96.448\nmse = 107.845\nsamples = 117\nvalue = 12.82"] ;
5 -> 6 ;
7 [label="X[38] <= 2042.781\nmse = 76.004\nsamples = 100\nvalue = 10.203"] ;
6 -> 7 ;
8 [label="X[42] <= 31.036\nmse = 83.377\nsamples = 64\nvalue = 7.769"] ;
7 -> 8 ;
9 [label="X[20] <= 57.029\nmse = 6.851\nsamples = 11\nvalue = 2.875"] ;
8 -> 9 ;
10 [label="X[13] <= 806.824\nmse = 4.778\nsamples = 9\nvalue = 2.081"] ;
9 -> 10 ;
11 [label="mse = 5.062\nsamples = 2\nvalue = 3.75"] ;
10 -> 11 ;
12 [label="X[20] <= 15.931\nmse = 3.673\nsamples = 7\nvalue = 1.604"] ;
10 -> 12 ;
13 [label="mse = 7.242\nsamples = 3\nvalue = 2.209"] ;
12 -> 13 ;
14 [label="X[46] <= 0.387\nmse = 0.516\nsamples = 4\nvalue = 1.15"] ;
12 -> 14 ;
15 [label="mse = 0.81\nsamples = 2\nvalue = 1.48"] ;
14 -> 15 ;
16 [label="X[2] <= 11.645\nmse = 0.004\nsamples = 2\nvalue = 0.82"] ;
14 -> 16 ;
17 [label="mse = 0.0\nsamples = 1\nvalue = 0.76"] ;
16 -> 17 ;
18 [label="mse = -0.0\nsamples = 1\nvalue = 0.88"] ;
16 -> 18 ;
19 [label="X[76] <= 0.324\nmse = 0.563\nsamples = 2\nvalue = 6.45"] ;
9 -> 19 ;
20 [label="mse = 0.0\nsamples = 1\nvalue = 5.7"] ;
19 -> 20 ;
21 [label="mse = 0.0\nsamples = 1\nvalue = 7.2"] ;
19 -> 21 ;
22 [label="X[59] <= 48.791\nmse = 93.257\nsamples = 53\nvalue = 8.785"] ;
8 -> 22 ;
23 [label="X[24] <= 70.11\nmse = 96.89\nsamples = 47\nvalue = 9.729"] ;
22 -> 23 ;
24 [label="X[22] <= 57.5\nmse = 153.855\nsamples = 27\nvalue = 8.481"] ;
23 -> 24 ;
25 [label="mse = 0.0\nsamples = 1\nvalue = 0.65"] ;
24 -> 25 ;
26 [label="X[48] <= 143.45\nmse = 157.323\nsamples = 26\nvalue = 8.783"] ;
24 -> 26 ;
27 [label="X[44] <= 137.719\nmse = 163.418\nsamples = 25\nvalue = 8.87"] ;
26 -> 27 ;
28 [label="mse = 0.0\nsamples = 1\nvalue = 8.0"] ;
27 -> 28 ;
29 [label="X[41] <= 111.94\nmse = 170.194\nsamples = 24\nvalue = 8.906"] ;
27 -> 29 ;
30 [label="mse = 0.0\nsamples = 1\nvalue = 9.0"] ;
29 -> 30 ;
31 [label="mse = 177.594\nsamples = 23\nvalue = 8.902"] ;
29 -> 31 ;
32 [label="mse = -0.0\nsamples = 1\nvalue = 6.6"] ;
26 -> 32 ;
33 [label="X[31] <= 1106.265\nmse = 15.052\nsamples = 20\nvalue = 11.413"] ;
23 -> 33 ;
34 [label="X[66] <= 0.232\nmse = 34.363\nsamples = 7\nvalue = 13.114"] ;
33 -> 34 ;
35 [label="X[0] <= 3.0\nmse = 39.398\nsamples = 6\nvalue = 12.8"] ;
34 -> 35 ;
36 [label="mse = 47.124\nsamples = 5\nvalue = 12.96"] ;
35 -> 36 ;
37 [label="mse = 0.0\nsamples = 1\nvalue = 12.0"] ;
35 -> 37 ;
38 [label="mse = 0.0\nsamples = 1\nvalue = 15.0"] ;
34 -> 38 ;
39 [label="X[8] <= 4.827\nmse = 2.254\nsamples = 13\nvalue = 10.496"] ;
33 -> 39 ;
40 [label="X[1] <= 20.834\nmse = 0.207\nsamples = 10\nvalue = 11.243"] ;
39 -> 40 ;
41 [label="mse = 0.0\nsamples = 1\nvalue = 11.0"] ;
40 -> 41 ;
42 [label="mse = 0.223\nsamples = 9\nvalue = 11.27"] ;
40 -> 42 ;
43 [label="X[49] <= 41.625\nmse = 1.021\nsamples = 3\nvalue = 8.007"] ;
39 -> 43 ;
44 [label="mse = 0.0\nsamples = 1\nvalue = 6.62"] ;
43 -> 44 ;
45 [label="X[51] <= 42.923\nmse = 0.09\nsamples = 2\nvalue = 8.7"] ;
43 -> 45 ;
46 [label="mse = 0.0\nsamples = 1\nvalue = 9.0"] ;
45 -> 46 ;
47 [label="mse = 0.0\nsamples = 1\nvalue = 8.4"] ;
45 -> 47 ;
48 [label="X[24] <= 90.89\nmse = 3.174\nsamples = 6\nvalue = 1.393"] ;
22 -> 48 ;
49 [label="X[46] <= 0.278\nmse = 0.686\nsamples = 5\nvalue = 0.671"] ;
48 -> 49 ;
50 [label="X[14] <= 977.15\nmse = 0.028\nsamples = 4\nvalue = 0.264"] ;
49 -> 50 ;
51 [label="mse = 0.043\nsamples = 2\nvalue = 0.342"] ;
50 -> 51 ;
52 [label="X[25] <= 0.692\nmse = 0.001\nsamples = 2\nvalue = 0.186"] ;
50 -> 52 ;
53 [label="mse = 0.0\nsamples = 1\nvalue = 0.152"] ;
52 -> 53 ;
54 [label="mse = 0.0\nsamples = 1\nvalue = 0.22"] ;
52 -> 54 ;
55 [label="mse = 0.0\nsamples = 1\nvalue = 2.3"] ;
49 -> 55 ;
56 [label="mse = 0.0\nsamples = 1\nvalue = 5.0"] ;
48 -> 56 ;
57 [label="X[30] <= 36.323\nmse = 33.651\nsamples = 36\nvalue = 14.529"] ;
7 -> 57 ;
58 [label="X[50] <= 22.009\nmse = 14.672\nsamples = 18\nvalue = 10.375"] ;
57 -> 58 ;
59 [label="X[76] <= 0.074\nmse = 10.325\nsamples = 7\nvalue = 6.507"] ;
58 -> 59 ;
60 [label="X[70] <= 11.925\nmse = 4.169\nsamples = 3\nvalue = 9.533"] ;
59 -> 60 ;
61 [label="mse = 0.0\nsamples = 1\nvalue = 7.0"] ;
60 -> 61 ;
62 [label="X[34] <= 2228.398\nmse = 1.44\nsamples = 2\nvalue = 10.8"] ;
60 -> 62 ;
63 [label="mse = 0.0\nsamples = 1\nvalue = 9.6"] ;
62 -> 63 ;
64 [label="mse = -0.0\nsamples = 1\nvalue = 12.0"] ;
62 -> 64 ;
65 [label="X[68] <= 72.757\nmse = 2.922\nsamples = 4\nvalue = 4.238"] ;
59 -> 65 ;
66 [label="mse = 0.0\nsamples = 1\nvalue = 7.05"] ;
65 -> 66 ;
67 [label="X[6] <= 0.324\nmse = 0.38\nsamples = 3\nvalue = 3.3"] ;
65 -> 67 ;
68 [label="mse = 0.0\nsamples = 1\nvalue = 4.0"] ;
67 -> 68 ;
69 [label="mse = 0.203\nsamples = 2\nvalue = 2.95"] ;
67 -> 69 ;
70 [label="X[7] <= 13.514\nmse = 1.86\nsamples = 11\nvalue = 12.836"] ;
58 -> 70 ;
71 [label="mse = 0.0\nsamples = 3\nvalue = 14.7"] ;
70 -> 71 ;
72 [label="X[74] <= 3.561\nmse = 0.767\nsamples = 8\nvalue = 12.138"] ;
70 -> 72 ;
73 [label="mse = 0.0\nsamples = 1\nvalue = 13.0"] ;
72 -> 73 ;
74 [label="X[64] <= 110.341\nmse = 0.756\nsamples = 7\nvalue = 12.014"] ;
72 -> 74 ;
75 [label="mse = 0.0\nsamples = 1\nvalue = 11.8"] ;
74 -> 75 ;
76 [label="X[55] <= 0.231\nmse = 0.873\nsamples = 6\nvalue = 12.05"] ;
74 -> 76 ;
77 [label="mse = 1.046\nsamples = 5\nvalue = 12.06"] ;
76 -> 77 ;
78 [label="mse = 0.0\nsamples = 1\nvalue = 12.0"] ;
76 -> 78 ;
79 [label="X[21] <= 173.333\nmse = 18.115\nsamples = 18\nvalue = 18.683"] ;
57 -> 79 ;
80 [label="X[78] <= 3.617\nmse = 11.64\nsamples = 14\nvalue = 17.15"] ;
79 -> 80 ;
81 [label="mse = 0.0\nsamples = 1\nvalue = 15.2"] ;
80 -> 81 ;
82 [label="X[63] <= 61.939\nmse = 12.22\nsamples = 13\nvalue = 17.3"] ;
80 -> 82 ;
83 [label="mse = 0.0\nsamples = 1\nvalue = 17.0"] ;
82 -> 83 ;
84 [label="mse = 13.23\nsamples = 12\nvalue = 17.325"] ;
82 -> 84 ;
85 [label="X[40] <= 237.531\nmse = 3.747\nsamples = 4\nvalue = 24.05"] ;
79 -> 85 ;
86 [label="mse = 1.69\nsamples = 2\nvalue = 25.7"] ;
85 -> 86 ;
87 [label="mse = 0.36\nsamples = 2\nvalue = 22.4"] ;
85 -> 87 ;
88 [label="X[0] <= 2.5\nmse = 17.856\nsamples = 17\nvalue = 28.215"] ;
6 -> 88 ;
89 [label="X[66] <= 0.086\nmse = 17.792\nsamples = 16\nvalue = 28.478"] ;
88 -> 89 ;
90 [label="mse = 0.0\nsamples = 2\nvalue = 29.0"] ;
89 -> 90 ;
91 [label="X[78] <= 3.725\nmse = 20.289\nsamples = 14\nvalue = 28.404"] ;
89 -> 91 ;
92 [label="mse = 0.0\nsamples = 1\nvalue = 29.0"] ;
91 -> 92 ;
93 [label="mse = 21.821\nsamples = 13\nvalue = 28.358"] ;
91 -> 93 ;
94 [label="mse = 0.0\nsamples = 1\nvalue = 24.0"] ;
88 -> 94 ;
95 [label="X[4] <= 11.906\nmse = 201.829\nsamples = 127\nvalue = 32.304"] ;
5 -> 95 ;
96 [label="X[36] <= 0.145\nmse = 71.249\nsamples = 17\nvalue = 9.772"] ;
95 -> 96 ;
97 [label="X[73] <= 1.931\nmse = 31.369\nsamples = 3\nvalue = 24.867"] ;
96 -> 97 ;
98 [label="X[13] <= 888.092\nmse = 0.64\nsamples = 2\nvalue = 28.8"] ;
97 -> 98 ;
99 [label="mse = 0.0\nsamples = 1\nvalue = 29.6"] ;
98 -> 99 ;
100 [label="mse = 0.0\nsamples = 1\nvalue = 28.0"] ;
98 -> 100 ;
101 [label="mse = 0.0\nsamples = 1\nvalue = 17.0"] ;
97 -> 101 ;
102 [label="X[78] <= 2.117\nmse = 20.51\nsamples = 14\nvalue = 6.538"] ;
96 -> 102 ;
103 [label="X[72] <= 2.72\nmse = 5.117\nsamples = 8\nvalue = 3.629"] ;
102 -> 103 ;
104 [label="X[5] <= 0.705\nmse = 0.194\nsamples = 5\nvalue = 5.36"] ;
103 -> 104 ;
105 [label="X[5] <= 0.337\nmse = 0.012\nsamples = 4\nvalue = 5.575"] ;
104 -> 105 ;
106 [label="mse = 0.0\nsamples = 1\nvalue = 5.4"] ;
105 -> 106 ;
107 [label="X[38] <= 1113.708\nmse = 0.002\nsamples = 3\nvalue = 5.633"] ;
105 -> 107 ;
108 [label="mse = 0.0\nsamples = 1\nvalue = 5.7"] ;
107 -> 108 ;
109 [label="mse = 0.0\nsamples = 2\nvalue = 5.6"] ;
107 -> 109 ;
110 [label="mse = 0.0\nsamples = 1\nvalue = 4.5"] ;
104 -> 110 ;
111 [label="X[56] <= 0.212\nmse = 0.001\nsamples = 3\nvalue = 0.743"] ;
103 -> 111 ;
112 [label="mse = 0.0\nsamples = 1\nvalue = 0.72"] ;
111 -> 112 ;
113 [label="mse = 0.001\nsamples = 2\nvalue = 0.755"] ;
111 -> 113 ;
114 [label="X[42] <= 117.764\nmse = 14.705\nsamples = 6\nvalue = 10.417"] ;
102 -> 114 ;
115 [label="mse = 0.0\nsamples = 1\nvalue = 18.0"] ;
114 -> 115 ;
116 [label="X[62] <= 129.861\nmse = 3.844\nsamples = 5\nvalue = 8.9"] ;
114 -> 116 ;
117 [label="X[20] <= 187.339\nmse = 0.536\nsamples = 3\nvalue = 7.467"] ;
116 -> 117 ;
118 [label="mse = 0.0\nsamples = 1\nvalue = 8.5"] ;
117 -> 118 ;
119 [label="X[34] <= 56.529\nmse = 0.003\nsamples = 2\nvalue = 6.95"] ;
117 -> 119 ;
120 [label="mse = 0.0\nsamples = 1\nvalue = 7.0"] ;
119 -> 120 ;
121 [label="mse = 0.0\nsamples = 1\nvalue = 6.9"] ;
119 -> 121 ;
122 [label="X[79] <= 1.256\nmse = 1.102\nsamples = 2\nvalue = 11.05"] ;
116 -> 122 ;
123 [label="mse = 0.0\nsamples = 1\nvalue = 10.0"] ;
122 -> 123 ;
124 [label="mse = -0.0\nsamples = 1\nvalue = 12.1"] ;
122 -> 124 ;
125 [label="X[52] <= 96.684\nmse = 131.426\nsamples = 110\nvalue = 35.786"] ;
95 -> 125 ;
126 [label="X[8] <= 0.778\nmse = 56.353\nsamples = 108\nvalue = 34.643"] ;
125 -> 126 ;
127 [label="X[56] <= 0.26\nmse = 231.869\nsamples = 3\nvalue = 16.667"] ;
126 -> 127 ;
128 [label="mse = 0.0\nsamples = 1\nvalue = 5.7"] ;
127 -> 128 ;
129 [label="X[74] <= 2.635\nmse = 257.603\nsamples = 2\nvalue = 22.15"] ;
127 -> 129 ;
130 [label="mse = 0.0\nsamples = 1\nvalue = 6.1"] ;
129 -> 130 ;
131 [label="mse = 0.0\nsamples = 1\nvalue = 38.2"] ;
129 -> 131 ;
132 [label="X[61] <= 66.283\nmse = 41.841\nsamples = 105\nvalue = 35.157"] ;
126 -> 132 ;
133 [label="X[4] <= 14.22\nmse = 54.163\nsamples = 8\nvalue = 27.3"] ;
132 -> 133 ;
134 [label="mse = 0.0\nsamples = 1\nvalue = 36.2"] ;
133 -> 134 ;
135 [label="X[60] <= 19.401\nmse = 48.968\nsamples = 7\nvalue = 26.029"] ;
133 -> 135 ;
136 [label="X[62] <= 69.049\nmse = 1.322\nsamples = 2\nvalue = 31.15"] ;
135 -> 136 ;
137 [label="mse = 0.0\nsamples = 1\nvalue = 30.0"] ;
136 -> 137 ;
138 [label="mse = 0.0\nsamples = 1\nvalue = 32.3"] ;
136 -> 138 ;
139 [label="X[36] <= 0.58\nmse = 53.338\nsamples = 5\nvalue = 23.98"] ;
135 -> 139 ;
140 [label="mse = 0.0\nsamples = 1\nvalue = 30.0"] ;
139 -> 140 ;
141 [label="X[73] <= 2.351\nmse = 55.347\nsamples = 4\nvalue = 22.475"] ;
139 -> 141 ;
142 [label="mse = 0.0\nsamples = 1\nvalue = 21.0"] ;
141 -> 142 ;
143 [label="X[70] <= 62.429\nmse = 72.829\nsamples = 3\nvalue = 22.967"] ;
141 -> 143 ;
144 [label="mse = 109.203\nsamples = 2\nvalue = 22.85"] ;
143 -> 144 ;
145 [label="mse = -0.0\nsamples = 1\nvalue = 23.2"] ;
143 -> 145 ;
146 [label="X[58] <= 33.199\nmse = 35.313\nsamples = 97\nvalue = 35.805"] ;
132 -> 146 ;
147 [label="X[63] <= 77.964\nmse = 52.535\nsamples = 61\nvalue = 35.094"] ;
146 -> 147 ;
148 [label="X[48] <= 18.505\nmse = 55.495\nsamples = 57\nvalue = 34.877"] ;
147 -> 148 ;
149 [label="X[16] <= 0.728\nmse = 58.547\nsamples = 53\nvalue = 35.087"] ;
148 -> 149 ;
150 [label="X[35] <= 0.931\nmse = 63.039\nsamples = 49\nvalue = 35.22"] ;
149 -> 150 ;
151 [label="X[78] <= 1.95\nmse = 66.81\nsamples = 46\nvalue = 35.093"] ;
150 -> 151 ;
152 [label="X[24] <= 103.301\nmse = 69.818\nsamples = 44\nvalue = 35.063"] ;
151 -> 152 ;
153 [label="X[13] <= 747.763\nmse = 71.434\nsamples = 43\nvalue = 35.077"] ;
152 -> 153 ;
154 [label="mse = 0.0\nsamples = 1\nvalue = 35.1"] ;
153 -> 154 ;
155 [label="mse = 73.135\nsamples = 42\nvalue = 35.076"] ;
153 -> 155 ;
156 [label="mse = 0.0\nsamples = 1\nvalue = 34.5"] ;
152 -> 156 ;
157 [label="X[5] <= 0.907\nmse = 0.203\nsamples = 2\nvalue = 35.75"] ;
151 -> 157 ;
158 [label="mse = 0.0\nsamples = 1\nvalue = 36.2"] ;
157 -> 158 ;
159 [label="mse = -0.0\nsamples = 1\nvalue = 35.3"] ;
157 -> 159 ;
160 [label="X[57] <= 44.15\nmse = 1.182\nsamples = 3\nvalue = 37.167"] ;
150 -> 160 ;
161 [label="mse = 0.0\nsamples = 1\nvalue = 38.3"] ;
160 -> 161 ;
162 [label="mse = 0.81\nsamples = 2\nvalue = 36.6"] ;
160 -> 162 ;
163 [label="X[14] <= 754.121\nmse = 0.623\nsamples = 4\nvalue = 33.45"] ;
149 -> 163 ;
164 [label="mse = 0.0\nsamples = 1\nvalue = 32.1"] ;
163 -> 164 ;
165 [label="X[50] <= 15.666\nmse = 0.02\nsamples = 3\nvalue = 33.9"] ;
163 -> 165 ;
166 [label="mse = 0.0\nsamples = 2\nvalue = 34.0"] ;
165 -> 166 ;
167 [label="mse = 0.0\nsamples = 1\nvalue = 33.7"] ;
165 -> 167 ;
168 [label="X[48] <= 18.571\nmse = 6.755\nsamples = 4\nvalue = 32.1"] ;
148 -> 168 ;
169 [label="mse = 0.0\nsamples = 1\nvalue = 29.5"] ;
168 -> 169 ;
170 [label="mse = 6.002\nsamples = 3\nvalue = 32.967"] ;
168 -> 170 ;
171 [label="X[40] <= 932.054\nmse = 0.11\nsamples = 4\nvalue = 38.188"] ;
147 -> 171 ;
172 [label="X[79] <= 0.644\nmse = 0.016\nsamples = 2\nvalue = 37.875"] ;
171 -> 172 ;
173 [label="mse = 0.0\nsamples = 1\nvalue = 37.75"] ;
172 -> 173 ;
174 [label="mse = 0.0\nsamples = 1\nvalue = 38.0"] ;
172 -> 174 ;
175 [label="X[38] <= 1371.667\nmse = 0.01\nsamples = 2\nvalue = 38.5"] ;
171 -> 175 ;
176 [label="mse = 0.0\nsamples = 1\nvalue = 38.6"] ;
175 -> 176 ;
177 [label="mse = 0.0\nsamples = 1\nvalue = 38.4"] ;
175 -> 177 ;
178 [label="X[40] <= 421.421\nmse = 3.826\nsamples = 36\nvalue = 37.009"] ;
146 -> 178 ;
179 [label="X[61] <= 68.667\nmse = 1.665\nsamples = 14\nvalue = 38.047"] ;
178 -> 179 ;
180 [label="X[18] <= 530.102\nmse = 1.44\nsamples = 2\nvalue = 40.2"] ;
179 -> 180 ;
181 [label="mse = 0.0\nsamples = 1\nvalue = 39.0"] ;
180 -> 181 ;
182 [label="mse = -0.0\nsamples = 1\nvalue = 41.4"] ;
180 -> 182 ;
183 [label="X[54] <= 31.868\nmse = 0.802\nsamples = 12\nvalue = 37.688"] ;
179 -> 183 ;
184 [label="X[71] <= 2.833\nmse = 0.062\nsamples = 9\nvalue = 38.04"] ;
183 -> 184 ;
185 [label="X[45] <= 0.752\nmse = 0.026\nsamples = 8\nvalue = 37.97"] ;
184 -> 185 ;
186 [label="X[56] <= 0.28\nmse = 0.018\nsamples = 6\nvalue = 38.027"] ;
185 -> 186 ;
187 [label="X[9] <= 7.095\nmse = 0.007\nsamples = 4\nvalue = 37.95"] ;
186 -> 187 ;
188 [label="mse = -0.0\nsamples = 3\nvalue = 38.0"] ;
187 -> 188 ;
189 [label="mse = 0.0\nsamples = 1\nvalue = 37.8"] ;
187 -> 189 ;
190 [label="X[68] <= 50.918\nmse = 0.005\nsamples = 2\nvalue = 38.18"] ;
186 -> 190 ;
191 [label="mse = 0.0\nsamples = 1\nvalue = 38.25"] ;
190 -> 191 ;
192 [label="mse = 0.0\nsamples = 1\nvalue = 38.11"] ;
190 -> 192 ;
193 [label="mse = 0.01\nsamples = 2\nvalue = 37.8"] ;
185 -> 193 ;
194 [label="mse = -0.0\nsamples = 1\nvalue = 38.6"] ;
184 -> 194 ;
195 [label="X[24] <= 83.329\nmse = 1.536\nsamples = 3\nvalue = 36.633"] ;
183 -> 195 ;
196 [label="mse = 2.25\nsamples = 2\nvalue = 36.5"] ;
195 -> 196 ;
197 [label="mse = -0.0\nsamples = 1\nvalue = 36.9"] ;
195 -> 197 ;
198 [label="X[63] <= 70.746\nmse = 4.08\nsamples = 22\nvalue = 36.349"] ;
178 -> 198 ;
199 [label="X[20] <= 29.567\nmse = 5.596\nsamples = 7\nvalue = 34.514"] ;
198 -> 199 ;
200 [label="mse = 0.0\nsamples = 1\nvalue = 32.0"] ;
199 -> 200 ;
201 [label="X[48] <= 18.497\nmse = 5.299\nsamples = 6\nvalue = 34.933"] ;
199 -> 201 ;
202 [label="mse = 0.0\nsamples = 1\nvalue = 33.5"] ;
201 -> 202 ;
203 [label="X[50] <= 12.553\nmse = 5.866\nsamples = 5\nvalue = 35.22"] ;
201 -> 203 ;
204 [label="mse = 12.25\nsamples = 2\nvalue = 34.7"] ;
203 -> 204 ;
205 [label="X[63] <= 61.579\nmse = 1.309\nsamples = 3\nvalue = 35.567"] ;
203 -> 205 ;
206 [label="mse = 0.0\nsamples = 1\nvalue = 35.5"] ;
205 -> 206 ;
207 [label="mse = 1.96\nsamples = 2\nvalue = 35.6"] ;
205 -> 207 ;
208 [label="X[34] <= 2102.478\nmse = 1.068\nsamples = 15\nvalue = 37.205"] ;
198 -> 208 ;
209 [label="mse = 0.0\nsamples = 1\nvalue = 35.3"] ;
208 -> 209 ;
210 [label="X[38] <= 1608.74\nmse = 0.866\nsamples = 14\nvalue = 37.341"] ;
208 -> 210 ;
211 [label="X[60] <= 19.43\nmse = 0.108\nsamples = 5\nvalue = 37.866"] ;
210 -> 211 ;
212 [label="X[63] <= 97.798\nmse = 0.008\nsamples = 2\nvalue = 37.49"] ;
211 -> 212 ;
213 [label="mse = 0.0\nsamples = 1\nvalue = 37.4"] ;
212 -> 213 ;
214 [label="mse = 0.0\nsamples = 1\nvalue = 37.58"] ;
212 -> 214 ;
215 [label="X[47] <= 39.75\nmse = 0.017\nsamples = 3\nvalue = 38.117"] ;
211 -> 215 ;
216 [label="mse = 0.0\nsamples = 1\nvalue = 38.3"] ;
215 -> 216 ;
217 [label="X[45] <= 0.629\nmse = 0.001\nsamples = 2\nvalue = 38.025"] ;
215 -> 217 ;
218 [label="mse = 0.0\nsamples = 1\nvalue = 38.05"] ;
217 -> 218 ;
219 [label="mse = 0.0\nsamples = 1\nvalue = 38.0"] ;
217 -> 219 ;
220 [label="X[48] <= 18.345\nmse = 1.05\nsamples = 9\nvalue = 37.05"] ;
210 -> 220 ;
221 [label="mse = 0.0\nsamples = 1\nvalue = 38.0"] ;
220 -> 221 ;
222 [label="X[50] <= 12.823\nmse = 1.054\nsamples = 8\nvalue = 36.931"] ;
220 -> 222 ;
223 [label="X[43] <= 15.602\nmse = 1.716\nsamples = 3\nvalue = 37.167"] ;
222 -> 223 ;
224 [label="mse = 2.56\nsamples = 2\nvalue = 37.1"] ;
223 -> 224 ;
225 [label="mse = -0.0\nsamples = 1\nvalue = 37.3"] ;
223 -> 225 ;
226 [label="X[72] <= 2.657\nmse = 0.604\nsamples = 5\nvalue = 36.79"] ;
222 -> 226 ;
227 [label="mse = 0.961\nsamples = 3\nvalue = 36.917"] ;
226 -> 227 ;
228 [label="X[66] <= 0.781\nmse = 0.01\nsamples = 2\nvalue = 36.6"] ;
226 -> 228 ;
229 [label="mse = 0.0\nsamples = 1\nvalue = 36.7"] ;
228 -> 229 ;
230 [label="mse = 0.0\nsamples = 1\nvalue = 36.5"] ;
228 -> 230 ;
231 [label="X[32] <= 2192.999\nmse = 306.25\nsamples = 2\nvalue = 97.5"] ;
125 -> 231 ;
232 [label="mse = 0.0\nsamples = 1\nvalue = 80.0"] ;
231 -> 232 ;
233 [label="mse = 0.0\nsamples = 1\nvalue = 115.0"] ;
231 -> 233 ;
234 [label="mse = -0.0\nsamples = 1\nvalue = 185.0"] ;
4 -> 234 ;
235 [label="X[55] <= 0.816\nmse = 90.708\nsamples = 1757\nvalue = 10.062"] ;
3 -> 235 ;
236 [label="X[18] <= 1014.651\nmse = 35.685\nsamples = 1060\nvalue = 6.991"] ;
235 -> 236 ;
237 [label="X[50] <= 132.853\nmse = 31.753\nsamples = 1053\nvalue = 6.836"] ;
236 -> 237 ;
238 [label="X[74] <= 3.498\nmse = 29.316\nsamples = 1016\nvalue = 6.508"] ;
237 -> 238 ;
239 [label="X[32] <= 756.24\nmse = 23.526\nsamples = 483\nvalue = 4.797"] ;
238 -> 239 ;
240 [label="X[54] <= 0.466\nmse = 232.13\nsamples = 4\nvalue = 28.9"] ;
239 -> 240 ;
241 [label="mse = 0.0\nsamples = 1\nvalue = 7.0"] ;
240 -> 241 ;
242 [label="X[72] <= 2.126\nmse = 96.347\nsamples = 3\nvalue = 36.2"] ;
240 -> 242 ;
243 [label="X[10] <= 23.2\nmse = 1.69\nsamples = 2\nvalue = 29.3"] ;
242 -> 243 ;
244 [label="mse = 0.0\nsamples = 1\nvalue = 28.0"] ;
243 -> 244 ;
245 [label="mse = 0.0\nsamples = 1\nvalue = 30.6"] ;
243 -> 245 ;
246 [label="mse = 0.0\nsamples = 1\nvalue = 50.0"] ;
242 -> 246 ;
247 [label="X[31] <= 1874.933\nmse = 16.892\nsamples = 479\nvalue = 4.596"] ;
239 -> 247 ;
248 [label="X[67] <= 144.996\nmse = 27.937\nsamples = 34\nvalue = 10.073"] ;
247 -> 248 ;
249 [label="X[34] <= 1470.442\nmse = 16.075\nsamples = 29\nvalue = 11.638"] ;
248 -> 249 ;
250 [label="X[64] <= 115.688\nmse = 5.093\nsamples = 27\nvalue = 10.87"] ;
249 -> 250 ;
251 [label="X[76] <= 0.889\nmse = 1.035\nsamples = 26\nvalue = 11.267"] ;
250 -> 251 ;
252 [label="X[8] <= 9.121\nmse = 0.441\nsamples = 16\nvalue = 11.8"] ;
251 -> 252 ;
253 [label="mse = 0.0\nsamples = 1\nvalue = 13.0"] ;
252 -> 253 ;
254 [label="X[20] <= 350.708\nmse = 0.368\nsamples = 15\nvalue = 11.72"] ;
252 -> 254 ;
255 [label="X[36] <= 0.229\nmse = 0.352\nsamples = 11\nvalue = 11.8"] ;
254 -> 255 ;
256 [label="X[40] <= 1989.551\nmse = 0.402\nsamples = 9\nvalue = 11.728"] ;
255 -> 256 ;
257 [label="mse = 0.0\nsamples = 1\nvalue = 11.75"] ;
256 -> 257 ;
258 [label="mse = 0.452\nsamples = 8\nvalue = 11.725"] ;
256 -> 258 ;
259 [label="X[64] <= 0.446\nmse = 0.001\nsamples = 2\nvalue = 12.125"] ;
255 -> 259 ;
260 [label="mse = 0.0\nsamples = 1\nvalue = 12.15"] ;
259 -> 260 ;
261 [label="mse = 0.0\nsamples = 1\nvalue = 12.1"] ;
259 -> 261 ;
262 [label="X[18] <= 671.615\nmse = 0.345\nsamples = 4\nvalue = 11.5"] ;
254 -> 262 ;
263 [label="X[72] <= 2.396\nmse = 0.002\nsamples = 2\nvalue = 11.75"] ;
262 -> 263 ;
264 [label="mse = 0.0\nsamples = 1\nvalue = 11.8"] ;
263 -> 264 ;
265 [label="mse = 0.0\nsamples = 1\nvalue = 11.7"] ;
263 -> 265 ;
266 [label="mse = 0.562\nsamples = 2\nvalue = 11.25"] ;
262 -> 266 ;
267 [label="X[34] <= 31.902\nmse = 0.805\nsamples = 10\nvalue = 10.415"] ;
251 -> 267 ;
268 [label="mse = 0.0\nsamples = 1\nvalue = 8.3"] ;
267 -> 268 ;
269 [label="X[46] <= 0.534\nmse = 0.342\nsamples = 9\nvalue = 10.65"] ;
267 -> 269 ;
270 [label="X[32] <= 1302.542\nmse = 0.16\nsamples = 4\nvalue = 10.088"] ;
269 -> 270 ;
271 [label="mse = 0.25\nsamples = 2\nvalue = 9.9"] ;
270 -> 271 ;
272 [label="mse = 0.001\nsamples = 2\nvalue = 10.275"] ;
270 -> 272 ;
273 [label="X[46] <= 0.637\nmse = 0.032\nsamples = 5\nvalue = 11.1"] ;
269 -> 273 ;
274 [label="X[66] <= 0.429\nmse = 0.01\nsamples = 2\nvalue = 11.3"] ;
273 -> 274 ;
275 [label="mse = 0.0\nsamples = 1\nvalue = 11.4"] ;
274 -> 275 ;
276 [label="mse = -0.0\nsamples = 1\nvalue = 11.2"] ;
274 -> 276 ;
277 [label="X[59] <= 8.179\nmse = 0.002\nsamples = 3\nvalue = 10.967"] ;
273 -> 277 ;
278 [label="mse = 0.0\nsamples = 1\nvalue = 10.9"] ;
277 -> 278 ;
279 [label="mse = 0.0\nsamples = 2\nvalue = 11.0"] ;
277 -> 279 ;
280 [label="mse = -0.0\nsamples = 1\nvalue = 0.55"] ;
250 -> 280 ;
281 [label="mse = 49.0\nsamples = 2\nvalue = 22.0"] ;
249 -> 281 ;
282 [label="X[10] <= 7.993\nmse = 0.195\nsamples = 5\nvalue = 0.999"] ;
248 -> 282 ;
283 [label="X[77] <= 1.0\nmse = 0.042\nsamples = 4\nvalue = 1.2"] ;
282 -> 283 ;
284 [label="mse = 0.0\nsamples = 1\nvalue = 1.55"] ;
283 -> 284 ;
285 [label="X[18] <= 533.316\nmse = 0.001\nsamples = 3\nvalue = 1.083"] ;
283 -> 285 ;
286 [label="mse = 0.0\nsamples = 1\nvalue = 1.13"] ;
285 -> 286 ;
287 [label="X[62] <= 232.0\nmse = 0.0\nsamples = 2\nvalue = 1.06"] ;
285 -> 287 ;
288 [label="mse = 0.0\nsamples = 1\nvalue = 1.05"] ;
287 -> 288 ;
289 [label="mse = -0.0\nsamples = 1\nvalue = 1.07"] ;
287 -> 289 ;
290 [label="mse = -0.0\nsamples = 1\nvalue = 0.195"] ;
282 -> 290 ;
291 [label="X[7] <= 192.677\nmse = 13.581\nsamples = 445\nvalue = 4.178"] ;
247 -> 291 ;
292 [label="X[60] <= 9.744\nmse = 10.918\nsamples = 427\nvalue = 3.947"] ;
291 -> 292 ;
293 [label="X[74] <= 3.065\nmse = 5.395\nsamples = 243\nvalue = 2.982"] ;
292 -> 293 ;
294 [label="X[49] <= 57.045\nmse = 4.651\nsamples = 197\nvalue = 2.538"] ;
293 -> 294 ;
295 [label="X[63] <= 121.339\nmse = 4.904\nsamples = 153\nvalue = 3.002"] ;
294 -> 295 ;
296 [label="X[1] <= 49.734\nmse = 4.768\nsamples = 131\nvalue = 3.364"] ;
295 -> 296 ;
297 [label="X[78] <= 0.757\nmse = 8.002\nsamples = 43\nvalue = 4.494"] ;
296 -> 297 ;
298 [label="X[21] <= 135.333\nmse = 33.872\nsamples = 6\nvalue = 7.948"] ;
297 -> 298 ;
299 [label="X[40] <= 2431.696\nmse = 0.121\nsamples = 3\nvalue = 6.283"] ;
298 -> 299 ;
300 [label="X[76] <= 0.66\nmse = 0.04\nsamples = 2\nvalue = 6.5"] ;
299 -> 300 ;
301 [label="mse = 0.0\nsamples = 1\nvalue = 6.7"] ;
300 -> 301 ;
302 [label="mse = 0.0\nsamples = 1\nvalue = 6.3"] ;
300 -> 302 ;
303 [label="mse = 0.0\nsamples = 1\nvalue = 5.85"] ;
299 -> 303 ;
304 [label="X[72] <= 2.714\nmse = 62.079\nsamples = 3\nvalue = 9.613"] ;
298 -> 304 ;
305 [label="mse = 0.0\nsamples = 1\nvalue = 8.9"] ;
304 -> 305 ;
306 [label="mse = 92.737\nsamples = 2\nvalue = 9.97"] ;
304 -> 306 ;
307 [label="X[62] <= 198.856\nmse = 1.559\nsamples = 37\nvalue = 3.934"] ;
297 -> 307 ;
308 [label="X[36] <= 0.589\nmse = 0.925\nsamples = 35\nvalue = 4.131"] ;
307 -> 308 ;
309 [label="X[68] <= 13.654\nmse = 0.779\nsamples = 32\nvalue = 3.997"] ;
308 -> 309 ;
310 [label="X[59] <= 4.42\nmse = 0.303\nsamples = 2\nvalue = 2.55"] ;
309 -> 310 ;
311 [label="mse = 0.0\nsamples = 1\nvalue = 3.1"] ;
310 -> 311 ;
312 [label="mse = 0.0\nsamples = 1\nvalue = 2.0"] ;
310 -> 312 ;
313 [label="X[46] <= 0.946\nmse = 0.662\nsamples = 30\nvalue = 4.093"] ;
309 -> 313 ;
314 [label="X[42] <= 103.359\nmse = 0.743\nsamples = 22\nvalue = 3.899"] ;
313 -> 314 ;
315 [label="X[76] <= 1.117\nmse = 0.212\nsamples = 5\nvalue = 2.89"] ;
314 -> 315 ;
316 [label="X[65] <= 0.685\nmse = 0.08\nsamples = 3\nvalue = 3.2"] ;
315 -> 316 ;
317 [label="mse = 0.0\nsamples = 1\nvalue = 3.0"] ;
316 -> 317 ;
318 [label="mse = 0.09\nsamples = 2\nvalue = 3.3"] ;
316 -> 318 ;
319 [label="X[10] <= 18.359\nmse = 0.051\nsamples = 2\nvalue = 2.425"] ;
315 -> 319 ;
320 [label="mse = 0.0\nsamples = 1\nvalue = 2.65"] ;
319 -> 320 ;
321 [label="mse = 0.0\nsamples = 1\nvalue = 2.2"] ;
319 -> 321 ;
322 [label="X[16] <= 0.991\nmse = 0.511\nsamples = 17\nvalue = 4.196"] ;
314 -> 322 ;
323 [label="X[46] <= 0.927\nmse = 0.743\nsamples = 6\nvalue = 3.603"] ;
322 -> 323 ;
324 [label="X[78] <= 0.889\nmse = 0.272\nsamples = 3\nvalue = 3.97"] ;
323 -> 324 ;
325 [label="mse = 0.0\nsamples = 1\nvalue = 4.7"] ;
324 -> 325 ;
326 [label="X[54] <= 0.63\nmse = 0.009\nsamples = 2\nvalue = 3.605"] ;
324 -> 326 ;
327 [label="mse = 0.0\nsamples = 1\nvalue = 3.51"] ;
326 -> 327 ;
328 [label="mse = 0.0\nsamples = 1\nvalue = 3.7"] ;
326 -> 328 ;
329 [label="mse = 0.945\nsamples = 3\nvalue = 3.237"] ;
323 -> 329 ;
330 [label="X[70] <= 42.482\nmse = 0.088\nsamples = 11\nvalue = 4.52"] ;
322 -> 330 ;
331 [label="X[54] <= 0.621\nmse = 0.1\nsamples = 3\nvalue = 4.32"] ;
330 -> 331 ;
332 [label="mse = 0.073\nsamples = 2\nvalue = 4.48"] ;
331 -> 332 ;
333 [label="mse = 0.0\nsamples = 1\nvalue = 4.0"] ;
331 -> 333 ;
334 [label="X[62] <= 19.883\nmse = 0.064\nsamples = 8\nvalue = 4.594"] ;
330 -> 334 ;
335 [label="mse = 0.072\nsamples = 5\nvalue = 4.629"] ;
334 -> 335 ;
336 [label="X[68] <= 15.44\nmse = 0.044\nsamples = 3\nvalue = 4.537"] ;
334 -> 336 ;
337 [label="mse = 0.065\nsamples = 2\nvalue = 4.555"] ;
336 -> 337 ;
338 [label="mse = 0.0\nsamples = 1\nvalue = 4.5"] ;
336 -> 338 ;
339 [label="X[56] <= 0.609\nmse = 0.05\nsamples = 8\nvalue = 4.626"] ;
313 -> 339 ;
340 [label="X[38] <= 1550.945\nmse = 0.003\nsamples = 2\nvalue = 4.755"] ;
339 -> 340 ;
341 [label="mse = 0.0\nsamples = 1\nvalue = 4.81"] ;
340 -> 341 ;
342 [label="mse = 0.0\nsamples = 1\nvalue = 4.7"] ;
340 -> 342 ;
343 [label="X[70] <= 46.828\nmse = 0.058\nsamples = 6\nvalue = 4.583"] ;
339 -> 343 ;
344 [label="mse = 0.109\nsamples = 3\nvalue = 4.633"] ;
343 -> 344 ;
345 [label="mse = 0.003\nsamples = 3\nvalue = 4.533"] ;
343 -> 345 ;
346 [label="X[10] <= 21.296\nmse = 0.229\nsamples = 3\nvalue = 5.567"] ;
308 -> 346 ;
347 [label="mse = 0.303\nsamples = 2\nvalue = 5.45"] ;
346 -> 347 ;
348 [label="mse = -0.0\nsamples = 1\nvalue = 5.8"] ;
346 -> 348 ;
349 [label="X[58] <= 10.667\nmse = 0.048\nsamples = 2\nvalue = 0.481"] ;
307 -> 349 ;
350 [label="mse = 0.0\nsamples = 1\nvalue = 0.262"] ;
349 -> 350 ;
351 [label="mse = -0.0\nsamples = 1\nvalue = 0.7"] ;
349 -> 351 ;
352 [label="X[14] <= 553.802\nmse = 2.258\nsamples = 88\nvalue = 2.812"] ;
296 -> 352 ;
353 [label="X[22] <= 195.265\nmse = 2.06\nsamples = 27\nvalue = 3.858"] ;
352 -> 353 ;
354 [label="X[50] <= 2.412\nmse = 1.012\nsamples = 11\nvalue = 4.775"] ;
353 -> 354 ;
355 [label="X[8] <= 99.922\nmse = 0.597\nsamples = 8\nvalue = 5.234"] ;
354 -> 355 ;
356 [label="mse = 0.022\nsamples = 3\nvalue = 5.987"] ;
355 -> 356 ;
357 [label="X[30] <= 1.999\nmse = 0.397\nsamples = 5\nvalue = 4.782"] ;
355 -> 357 ;
358 [label="X[35] <= 0.685\nmse = 0.0\nsamples = 2\nvalue = 5.505"] ;
357 -> 358 ;
359 [label="mse = 0.0\nsamples = 1\nvalue = 5.5"] ;
358 -> 359 ;
360 [label="mse = 0.0\nsamples = 1\nvalue = 5.51"] ;
358 -> 360 ;
361 [label="X[66] <= 0.235\nmse = 0.082\nsamples = 3\nvalue = 4.3"] ;
357 -> 361 ;
362 [label="mse = 0.0\nsamples = 1\nvalue = 3.95"] ;
361 -> 362 ;
363 [label="X[36] <= 0.322\nmse = 0.031\nsamples = 2\nvalue = 4.475"] ;
361 -> 363 ;
364 [label="mse = 0.0\nsamples = 1\nvalue = 4.65"] ;
363 -> 364 ;
365 [label="mse = 0.0\nsamples = 1\nvalue = 4.3"] ;
363 -> 365 ;
366 [label="X[54] <= 7.366\nmse = 0.059\nsamples = 3\nvalue = 3.55"] ;
354 -> 366 ;
367 [label="X[69] <= 78.5\nmse = 0.012\nsamples = 2\nvalue = 3.71"] ;
366 -> 367 ;
368 [label="mse = 0.0\nsamples = 1\nvalue = 3.6"] ;
367 -> 368 ;
369 [label="mse = -0.0\nsamples = 1\nvalue = 3.82"] ;
367 -> 369 ;
370 [label="mse = -0.0\nsamples = 1\nvalue = 3.23"] ;
366 -> 370 ;
371 [label="X[41] <= 27.875\nmse = 1.804\nsamples = 16\nvalue = 3.228"] ;
353 -> 371 ;
372 [label="X[33] <= 3070.0\nmse = 1.868\nsamples = 9\nvalue = 3.85"] ;
371 -> 372 ;
373 [label="mse = 0.001\nsamples = 2\nvalue = 3.575"] ;
372 -> 373 ;
374 [label="mse = 2.373\nsamples = 7\nvalue = 3.929"] ;
372 -> 374 ;
375 [label="X[68] <= 12.716\nmse = 0.584\nsamples = 7\nvalue = 2.427"] ;
371 -> 375 ;
376 [label="X[52] <= 6.705\nmse = 0.32\nsamples = 6\nvalue = 2.2"] ;
375 -> 376 ;
377 [label="X[8] <= 134.935\nmse = 0.095\nsamples = 4\nvalue = 1.848"] ;
376 -> 377 ;
378 [label="X[7] <= 6.529\nmse = 0.002\nsamples = 2\nvalue = 1.54"] ;
377 -> 378 ;
379 [label="mse = 0.0\nsamples = 1\nvalue = 1.5"] ;
378 -> 379 ;
380 [label="mse = 0.0\nsamples = 1\nvalue = 1.58"] ;
378 -> 380 ;
381 [label="X[70] <= 0.107\nmse = 0.0\nsamples = 2\nvalue = 2.155"] ;
377 -> 381 ;
382 [label="mse = 0.0\nsamples = 1\nvalue = 2.16"] ;
381 -> 382 ;
383 [label="mse = -0.0\nsamples = 1\nvalue = 2.15"] ;
381 -> 383 ;
384 [label="X[25] <= 0.346\nmse = 0.024\nsamples = 2\nvalue = 2.905"] ;
376 -> 384 ;
385 [label="mse = 0.0\nsamples = 1\nvalue = 2.75"] ;
384 -> 385 ;
386 [label="mse = -0.0\nsamples = 1\nvalue = 3.06"] ;
384 -> 386 ;
387 [label="mse = 0.0\nsamples = 1\nvalue = 3.79"] ;
375 -> 387 ;
388 [label="X[25] <= 0.692\nmse = 1.647\nsamples = 61\nvalue = 2.349"] ;
352 -> 388 ;
389 [label="X[44] <= 43.564\nmse = 1.039\nsamples = 39\nvalue = 1.989"] ;
388 -> 389 ;
390 [label="X[62] <= 16.67\nmse = 0.627\nsamples = 24\nvalue = 1.59"] ;
389 -> 390 ;
391 [label="X[22] <= 204.945\nmse = 0.3\nsamples = 7\nvalue = 0.999"] ;
390 -> 391 ;
392 [label="X[30] <= 8.059\nmse = 0.097\nsamples = 5\nvalue = 1.298"] ;
391 -> 392 ;
393 [label="mse = 0.0\nsamples = 1\nvalue = 1.85"] ;
392 -> 393 ;
394 [label="X[62] <= 14.84\nmse = 0.026\nsamples = 4\nvalue = 1.16"] ;
392 -> 394 ;
395 [label="X[63] <= 7.723\nmse = 0.023\nsamples = 3\nvalue = 1.213"] ;
394 -> 395 ;
396 [label="mse = 0.031\nsamples = 2\nvalue = 1.175"] ;
395 -> 396 ;
397 [label="mse = -0.0\nsamples = 1\nvalue = 1.29"] ;
395 -> 397 ;
398 [label="mse = 0.0\nsamples = 1\nvalue = 1.0"] ;
394 -> 398 ;
399 [label="X[62] <= 16.0\nmse = 0.022\nsamples = 2\nvalue = 0.25"] ;
391 -> 399 ;
400 [label="mse = 0.0\nsamples = 1\nvalue = 0.4"] ;
399 -> 400 ;
401 [label="mse = 0.0\nsamples = 1\nvalue = 0.1"] ;
399 -> 401 ;
402 [label="X[54] <= 11.359\nmse = 0.558\nsamples = 17\nvalue = 1.834"] ;
390 -> 402 ;
403 [label="X[10] <= 52.214\nmse = 0.646\nsamples = 12\nvalue = 1.66"] ;
402 -> 403 ;
404 [label="X[5] <= 0.669\nmse = 0.668\nsamples = 11\nvalue = 1.715"] ;
403 -> 404 ;
405 [label="X[60] <= 3.617\nmse = 0.883\nsamples = 8\nvalue = 1.636"] ;
404 -> 405 ;
406 [label="X[51] <= 5.13\nmse = 1.005\nsamples = 7\nvalue = 1.66"] ;
405 -> 406 ;
407 [label="mse = 1.172\nsamples = 6\nvalue = 1.67"] ;
406 -> 407 ;
408 [label="mse = 0.0\nsamples = 1\nvalue = 1.6"] ;
406 -> 408 ;
409 [label="mse = -0.0\nsamples = 1\nvalue = 1.47"] ;
405 -> 409 ;
410 [label="X[28] <= 38.0\nmse = 0.032\nsamples = 3\nvalue = 1.927"] ;
404 -> 410 ;
411 [label="mse = 0.0\nsamples = 1\nvalue = 1.68"] ;
410 -> 411 ;
412 [label="X[26] <= 0.564\nmse = 0.003\nsamples = 2\nvalue = 2.05"] ;
410 -> 412 ;
413 [label="mse = 0.0\nsamples = 1\nvalue = 2.0"] ;
412 -> 413 ;
414 [label="mse = 0.0\nsamples = 1\nvalue = 2.1"] ;
412 -> 414 ;
415 [label="mse = -0.0\nsamples = 1\nvalue = 1.05"] ;
403 -> 415 ;
416 [label="X[54] <= 11.66\nmse = 0.1\nsamples = 5\nvalue = 2.25"] ;
402 -> 416 ;
417 [label="mse = 0.149\nsamples = 3\nvalue = 2.333"] ;
416 -> 417 ;
418 [label="X[24] <= 148.432\nmse = 0.001\nsamples = 2\nvalue = 2.125"] ;
416 -> 418 ;
419 [label="mse = 0.0\nsamples = 1\nvalue = 2.15"] ;
418 -> 419 ;
420 [label="mse = -0.0\nsamples = 1\nvalue = 2.1"] ;
418 -> 420 ;
421 [label="X[49] <= 20.675\nmse = 1.037\nsamples = 15\nvalue = 2.627"] ;
389 -> 421 ;
422 [label="X[29] <= 43.5\nmse = 0.938\nsamples = 12\nvalue = 2.379"] ;
421 -> 422 ;
423 [label="X[35] <= 0.459\nmse = 0.764\nsamples = 10\nvalue = 2.621"] ;
422 -> 423 ;
424 [label="mse = 0.0\nsamples = 1\nvalue = 2.25"] ;
423 -> 424 ;
425 [label="X[60] <= 2.141\nmse = 0.832\nsamples = 9\nvalue = 2.662"] ;
423 -> 425 ;
426 [label="X[51] <= 8.675\nmse = 0.932\nsamples = 8\nvalue = 2.682"] ;
425 -> 426 ;
427 [label="mse = 1.065\nsamples = 7\nvalue = 2.68"] ;
426 -> 427 ;
428 [label="mse = 0.0\nsamples = 1\nvalue = 2.7"] ;
426 -> 428 ;
429 [label="mse = -0.0\nsamples = 1\nvalue = 2.5"] ;
425 -> 429 ;
430 [label="X[8] <= 37.191\nmse = 0.053\nsamples = 2\nvalue = 1.17"] ;
422 -> 430 ;
431 [label="mse = 0.0\nsamples = 1\nvalue = 0.94"] ;
430 -> 431 ;
432 [label="mse = -0.0\nsamples = 1\nvalue = 1.4"] ;
430 -> 432 ;
433 [label="X[69] <= 32.993\nmse = 0.207\nsamples = 3\nvalue = 3.617"] ;
421 -> 433 ;
434 [label="mse = 0.0\nsamples = 1\nvalue = 4.25"] ;
433 -> 434 ;
435 [label="mse = 0.01\nsamples = 2\nvalue = 3.3"] ;
433 -> 435 ;
436 [label="X[19] <= 67.25\nmse = 2.09\nsamples = 22\nvalue = 2.987"] ;
388 -> 436 ;
437 [label="mse = 0.0\nsamples = 1\nvalue = 8.6"] ;
436 -> 437 ;
438 [label="X[20] <= 192.783\nmse = 0.618\nsamples = 21\nvalue = 2.719"] ;
436 -> 438 ;
439 [label="X[37] <= 4694.0\nmse = 0.131\nsamples = 11\nvalue = 3.29"] ;
438 -> 439 ;
440 [label="X[29] <= 20.778\nmse = 0.006\nsamples = 2\nvalue = 2.82"] ;
439 -> 440 ;
441 [label="mse = 0.0\nsamples = 1\nvalue = 2.74"] ;
440 -> 441 ;
442 [label="mse = -0.0\nsamples = 1\nvalue = 2.9"] ;
440 -> 442 ;
443 [label="X[24] <= 152.16\nmse = 0.099\nsamples = 9\nvalue = 3.394"] ;
439 -> 443 ;
444 [label="mse = 0.105\nsamples = 7\nvalue = 3.324"] ;
443 -> 444 ;
445 [label="X[56] <= 0.476\nmse = 0.001\nsamples = 2\nvalue = 3.64"] ;
443 -> 445 ;
446 [label="mse = 0.0\nsamples = 1\nvalue = 3.61"] ;
445 -> 446 ;
447 [label="mse = 0.0\nsamples = 1\nvalue = 3.67"] ;
445 -> 447 ;
448 [label="X[69] <= 60.677\nmse = 0.401\nsamples = 10\nvalue = 2.092"] ;
438 -> 448 ;
449 [label="X[74] <= 2.898\nmse = 0.171\nsamples = 9\nvalue = 2.258"] ;
448 -> 449 ;
450 [label="X[13] <= 786.673\nmse = 0.051\nsamples = 2\nvalue = 2.775"] ;
449 -> 450 ;
451 [label="mse = 0.0\nsamples = 1\nvalue = 2.55"] ;
450 -> 451 ;
452 [label="mse = 0.0\nsamples = 1\nvalue = 3.0"] ;
450 -> 452 ;
453 [label="X[21] <= 150.417\nmse = 0.107\nsamples = 7\nvalue = 2.11"] ;
449 -> 453 ;
454 [label="mse = 0.0\nsamples = 1\nvalue = 2.2"] ;
453 -> 454 ;
455 [label="X[39] <= 2556.898\nmse = 0.123\nsamples = 6\nvalue = 2.095"] ;
453 -> 455 ;
456 [label="mse = 0.106\nsamples = 4\nvalue = 2.08"] ;
455 -> 456 ;
457 [label="mse = 0.156\nsamples = 2\nvalue = 2.125"] ;
455 -> 457 ;
458 [label="mse = -0.0\nsamples = 1\nvalue = 0.6"] ;
448 -> 458 ;
459 [label="X[22] <= 143.8\nmse = 0.275\nsamples = 22\nvalue = 0.844"] ;
295 -> 459 ;
460 [label="X[44] <= 11.559\nmse = 0.087\nsamples = 15\nvalue = 1.16"] ;
459 -> 460 ;
461 [label="X[2] <= 22.239\nmse = 0.005\nsamples = 4\nvalue = 0.838"] ;
460 -> 461 ;
462 [label="mse = 0.0\nsamples = 1\nvalue = 0.72"] ;
461 -> 462 ;
463 [label="X[51] <= 8.862\nmse = 0.001\nsamples = 3\nvalue = 0.877"] ;
461 -> 463 ;
464 [label="mse = 0.0\nsamples = 1\nvalue = 0.92"] ;
463 -> 464 ;
465 [label="mse = 0.0\nsamples = 2\nvalue = 0.855"] ;
463 -> 465 ;
466 [label="X[44] <= 11.755\nmse = 0.065\nsamples = 11\nvalue = 1.277"] ;
460 -> 466 ;
467 [label="mse = 0.0\nsamples = 1\nvalue = 1.63"] ;
466 -> 467 ;
468 [label="X[31] <= 2459.5\nmse = 0.058\nsamples = 10\nvalue = 1.242"] ;
466 -> 468 ;
469 [label="mse = 0.0\nsamples = 1\nvalue = 0.85"] ;
468 -> 469 ;
470 [label="X[15] <= 0.676\nmse = 0.045\nsamples = 9\nvalue = 1.285"] ;
468 -> 470 ;
471 [label="X[59] <= 0.837\nmse = 0.044\nsamples = 8\nvalue = 1.259"] ;
470 -> 471 ;
472 [label="mse = 0.048\nsamples = 7\nvalue = 1.277"] ;
471 -> 472 ;
473 [label="mse = 0.0\nsamples = 1\nvalue = 1.132"] ;
471 -> 473 ;
474 [label="mse = 0.0\nsamples = 1\nvalue = 1.5"] ;
470 -> 474 ;
475 [label="X[46] <= 0.642\nmse = 0.006\nsamples = 7\nvalue = 0.166"] ;
459 -> 475 ;
476 [label="X[10] <= 22.627\nmse = 0.003\nsamples = 6\nvalue = 0.191"] ;
475 -> 476 ;
477 [label="X[65] <= 0.672\nmse = 0.0\nsamples = 2\nvalue = 0.26"] ;
476 -> 477 ;
478 [label="mse = 0.0\nsamples = 1\nvalue = 0.24"] ;
477 -> 478 ;
479 [label="mse = 0.0\nsamples = 1\nvalue = 0.28"] ;
477 -> 479 ;
480 [label="X[20] <= 48.517\nmse = 0.0\nsamples = 4\nvalue = 0.157"] ;
476 -> 480 ;
481 [label="X[32] <= 7820.56\nmse = 0.0\nsamples = 2\nvalue = 0.142"] ;
480 -> 481 ;
482 [label="mse = 0.0\nsamples = 1\nvalue = 0.145"] ;
481 -> 482 ;
483 [label="mse = -0.0\nsamples = 1\nvalue = 0.138"] ;
481 -> 483 ;
484 [label="X[6] <= 0.224\nmse = 0.0\nsamples = 2\nvalue = 0.172"] ;
480 -> 484 ;
485 [label="mse = 0.0\nsamples = 1\nvalue = 0.185"] ;
484 -> 485 ;
486 [label="mse = 0.0\nsamples = 1\nvalue = 0.16"] ;
484 -> 486 ;
487 [label="mse = 0.0\nsamples = 1\nvalue = 0.016"] ;
475 -> 487 ;
488 [label="X[3] <= 42.467\nmse = 0.432\nsamples = 44\nvalue = 0.928"] ;
294 -> 488 ;
489 [label="X[16] <= 0.654\nmse = 0.07\nsamples = 20\nvalue = 0.423"] ;
488 -> 489 ;
490 [label="X[43] <= 24.711\nmse = 0.027\nsamples = 6\nvalue = 0.74"] ;
489 -> 490 ;
491 [label="mse = 0.0\nsamples = 1\nvalue = 0.56"] ;
490 -> 491 ;
492 [label="X[56] <= 0.06\nmse = 0.024\nsamples = 5\nvalue = 0.776"] ;
490 -> 492 ;
493 [label="X[2] <= 32.641\nmse = 0.0\nsamples = 2\nvalue = 0.71"] ;
492 -> 493 ;
494 [label="mse = 0.0\nsamples = 1\nvalue = 0.72"] ;
493 -> 494 ;
495 [label="mse = 0.0\nsamples = 1\nvalue = 0.7"] ;
493 -> 495 ;
496 [label="X[38] <= 2281.686\nmse = 0.035\nsamples = 3\nvalue = 0.82"] ;
492 -> 496 ;
497 [label="mse = 0.053\nsamples = 2\nvalue = 0.83"] ;
496 -> 497 ;
498 [label="mse = 0.0\nsamples = 1\nvalue = 0.8"] ;
496 -> 498 ;
499 [label="X[26] <= 1.076\nmse = 0.027\nsamples = 14\nvalue = 0.287"] ;
489 -> 499 ;
500 [label="X[64] <= 4.541\nmse = 0.0\nsamples = 2\nvalue = 0.465"] ;
499 -> 500 ;
501 [label="mse = 0.0\nsamples = 1\nvalue = 0.47"] ;
500 -> 501 ;
502 [label="mse = 0.0\nsamples = 1\nvalue = 0.46"] ;
500 -> 502 ;
503 [label="X[36] <= 0.661\nmse = 0.025\nsamples = 12\nvalue = 0.257"] ;
499 -> 503 ;
504 [label="mse = 0.0\nsamples = 1\nvalue = 0.3"] ;
503 -> 504 ;
505 [label="mse = 0.028\nsamples = 11\nvalue = 0.253"] ;
503 -> 505 ;
506 [label="X[57] <= 9.249\nmse = 0.343\nsamples = 24\nvalue = 1.349"] ;
488 -> 506 ;
507 [label="X[3] <= 89.604\nmse = 0.116\nsamples = 2\nvalue = 2.34"] ;
506 -> 507 ;
508 [label="mse = 0.0\nsamples = 1\nvalue = 2.68"] ;
507 -> 508 ;
509 [label="mse = 0.0\nsamples = 1\nvalue = 2.0"] ;
507 -> 509 ;
510 [label="X[1] <= 56.566\nmse = 0.266\nsamples = 22\nvalue = 1.259"] ;
506 -> 510 ;
511 [label="mse = 0.0\nsamples = 1\nvalue = 1.4"] ;
510 -> 511 ;
512 [label="mse = 0.278\nsamples = 21\nvalue = 1.253"] ;
510 -> 512 ;
513 [label="X[34] <= 3389.1\nmse = 4.127\nsamples = 46\nvalue = 4.882"] ;
293 -> 513 ;
514 [label="X[30] <= 57.723\nmse = 2.054\nsamples = 36\nvalue = 5.671"] ;
513 -> 514 ;
515 [label="X[72] <= 3.575\nmse = 1.489\nsamples = 26\nvalue = 6.222"] ;
514 -> 515 ;
516 [label="X[48] <= 9.285\nmse = 0.955\nsamples = 25\nvalue = 6.07"] ;
515 -> 516 ;
517 [label="X[54] <= 24.319\nmse = 0.017\nsamples = 2\nvalue = 7.43"] ;
516 -> 517 ;
518 [label="mse = 0.0\nsamples = 1\nvalue = 7.3"] ;
517 -> 518 ;
519 [label="mse = 0.0\nsamples = 1\nvalue = 7.56"] ;
517 -> 519 ;
520 [label="X[21] <= 122.875\nmse = 0.862\nsamples = 23\nvalue = 5.952"] ;
516 -> 520 ;
521 [label="mse = 0.0\nsamples = 1\nvalue = 6.45"] ;
520 -> 521 ;
522 [label="X[37] <= 6991.285\nmse = 0.889\nsamples = 22\nvalue = 5.93"] ;
520 -> 522 ;
523 [label="X[37] <= 5080.5\nmse = 0.013\nsamples = 9\nvalue = 6.003"] ;
522 -> 523 ;
524 [label="mse = 0.014\nsamples = 8\nvalue = 5.991"] ;
523 -> 524 ;
525 [label="mse = -0.0\nsamples = 1\nvalue = 6.1"] ;
523 -> 525 ;
526 [label="mse = 1.489\nsamples = 13\nvalue = 5.878"] ;
522 -> 526 ;
527 [label="mse = 0.0\nsamples = 1\nvalue = 10.0"] ;
515 -> 527 ;
528 [label="X[20] <= 371.848\nmse = 0.687\nsamples = 10\nvalue = 4.24"] ;
514 -> 528 ;
529 [label="X[39] <= 2759.623\nmse = 0.227\nsamples = 7\nvalue = 3.779"] ;
528 -> 529 ;
530 [label="mse = 0.001\nsamples = 2\nvalue = 4.38"] ;
529 -> 530 ;
531 [label="X[29] <= 66.752\nmse = 0.115\nsamples = 5\nvalue = 3.538"] ;
529 -> 531 ;
532 [label="mse = 0.133\nsamples = 2\nvalue = 3.465"] ;
531 -> 532 ;
533 [label="mse = 0.096\nsamples = 3\nvalue = 3.587"] ;
531 -> 533 ;
534 [label="mse = 0.106\nsamples = 3\nvalue = 5.317"] ;
528 -> 534 ;
535 [label="X[66] <= 0.254\nmse = 1.29\nsamples = 10\nvalue = 2.044"] ;
513 -> 535 ;
536 [label="X[13] <= 630.817\nmse = 0.542\nsamples = 5\nvalue = 1.167"] ;
535 -> 536 ;
537 [label="X[60] <= 7.129\nmse = 0.003\nsamples = 2\nvalue = 0.295"] ;
536 -> 537 ;
538 [label="mse = 0.0\nsamples = 1\nvalue = 0.35"] ;
537 -> 538 ;
539 [label="mse = 0.0\nsamples = 1\nvalue = 0.24"] ;
537 -> 539 ;
540 [label="X[65] <= 0.084\nmse = 0.056\nsamples = 3\nvalue = 1.748"] ;
536 -> 540 ;
541 [label="mse = 0.004\nsamples = 2\nvalue = 1.585"] ;
540 -> 541 ;
542 [label="mse = 0.0\nsamples = 1\nvalue = 2.075"] ;
540 -> 542 ;
543 [label="X[56] <= 0.572\nmse = 0.502\nsamples = 5\nvalue = 2.92"] ;
535 -> 543 ;
544 [label="X[72] <= 3.6\nmse = 0.032\nsamples = 4\nvalue = 2.575"] ;
543 -> 544 ;
545 [label="X[16] <= 0.67\nmse = 0.009\nsamples = 3\nvalue = 2.667"] ;
544 -> 545 ;
546 [label="mse = 0.0\nsamples = 1\nvalue = 2.8"] ;
545 -> 546 ;
547 [label="mse = -0.0\nsamples = 2\nvalue = 2.6"] ;
545 -> 547 ;
548 [label="mse = 0.0\nsamples = 1\nvalue = 2.3"] ;
544 -> 548 ;
549 [label="mse = -0.0\nsamples = 1\nvalue = 4.3"] ;
543 -> 549 ;
550 [label="X[44] <= 14.817\nmse = 15.36\nsamples = 184\nvalue = 5.221"] ;
292 -> 550 ;
551 [label="mse = 0.0\nsamples = 1\nvalue = 38.4"] ;
550 -> 551 ;
552 [label="X[23] <= 138.328\nmse = 9.396\nsamples = 183\nvalue = 5.04"] ;
550 -> 552 ;
553 [label="X[44] <= 115.54\nmse = 9.752\nsamples = 125\nvalue = 6.02"] ;
552 -> 553 ;
554 [label="X[30] <= 83.892\nmse = 8.277\nsamples = 109\nvalue = 6.535"] ;
553 -> 554 ;
555 [label="X[26] <= 0.506\nmse = 6.722\nsamples = 108\nvalue = 6.413"] ;
554 -> 555 ;
556 [label="X[15] <= 0.681\nmse = 1.792\nsamples = 5\nvalue = 2.028"] ;
555 -> 556 ;
557 [label="X[1] <= 44.19\nmse = 0.009\nsamples = 4\nvalue = 1.36"] ;
556 -> 557 ;
558 [label="mse = 0.0\nsamples = 1\nvalue = 1.3"] ;
557 -> 558 ;
559 [label="mse = 0.01\nsamples = 3\nvalue = 1.38"] ;
557 -> 559 ;
560 [label="mse = 0.0\nsamples = 1\nvalue = 4.7"] ;
556 -> 560 ;
561 [label="X[26] <= 1.081\nmse = 5.983\nsamples = 103\nvalue = 6.626"] ;
555 -> 561 ;
562 [label="X[29] <= 84.48\nmse = 5.269\nsamples = 92\nvalue = 6.963"] ;
561 -> 562 ;
563 [label="X[40] <= 2299.898\nmse = 3.961\nsamples = 91\nvalue = 6.842"] ;
562 -> 563 ;
564 [label="X[8] <= 5.801\nmse = 3.047\nsamples = 34\nvalue = 5.684"] ;
563 -> 564 ;
565 [label="X[38] <= 360.5\nmse = 0.509\nsamples = 20\nvalue = 6.722"] ;
564 -> 565 ;
566 [label="mse = 0.0\nsamples = 1\nvalue = 5.57"] ;
565 -> 566 ;
567 [label="X[33] <= 1981.268\nmse = 0.462\nsamples = 19\nvalue = 6.783"] ;
565 -> 567 ;
568 [label="mse = 0.04\nsamples = 2\nvalue = 7.2"] ;
567 -> 568 ;
569 [label="X[6] <= 1.081\nmse = 0.489\nsamples = 17\nvalue = 6.734"] ;
567 -> 569 ;
570 [label="X[78] <= 1.338\nmse = 0.266\nsamples = 5\nvalue = 6.666"] ;
569 -> 570 ;
571 [label="mse = 0.0\nsamples = 1\nvalue = 6.63"] ;
570 -> 571 ;
572 [label="mse = 0.332\nsamples = 4\nvalue = 6.675"] ;
570 -> 572 ;
573 [label="mse = 0.579\nsamples = 12\nvalue = 6.762"] ;
569 -> 573 ;
574 [label="X[39] <= 1491.751\nmse = 2.933\nsamples = 14\nvalue = 4.201"] ;
564 -> 574 ;
575 [label="X[36] <= 0.988\nmse = 1.815\nsamples = 8\nvalue = 5.02"] ;
574 -> 575 ;
576 [label="X[26] <= 0.648\nmse = 0.722\nsamples = 4\nvalue = 6.05"] ;
575 -> 576 ;
577 [label="mse = 0.0\nsamples = 1\nvalue = 7.5"] ;
576 -> 577 ;
578 [label="X[22] <= 133.277\nmse = 0.029\nsamples = 3\nvalue = 5.567"] ;
576 -> 578 ;
579 [label="X[61] <= 171.25\nmse = 0.002\nsamples = 2\nvalue = 5.45"] ;
578 -> 579 ;
580 [label="mse = 0.0\nsamples = 1\nvalue = 5.5"] ;
579 -> 580 ;
581 [label="mse = 0.0\nsamples = 1\nvalue = 5.4"] ;
579 -> 581 ;
582 [label="mse = 0.0\nsamples = 1\nvalue = 5.8"] ;
578 -> 582 ;
583 [label="X[80] <= 0.811\nmse = 0.785\nsamples = 4\nvalue = 3.99"] ;
575 -> 583 ;
584 [label="X[20] <= 83.948\nmse = 0.007\nsamples = 3\nvalue = 4.5"] ;
583 -> 584 ;
585 [label="mse = 0.0\nsamples = 1\nvalue = 4.6"] ;
584 -> 585 ;
586 [label="X[58] <= 9.285\nmse = 0.002\nsamples = 2\nvalue = 4.45"] ;
584 -> 586 ;
587 [label="mse = 0.0\nsamples = 1\nvalue = 4.5"] ;
586 -> 587 ;
588 [label="mse = -0.0\nsamples = 1\nvalue = 4.4"] ;
586 -> 588 ;
589 [label="mse = 0.0\nsamples = 1\nvalue = 2.46"] ;
583 -> 589 ;
590 [label="X[27] <= 123.5\nmse = 2.335\nsamples = 6\nvalue = 3.108"] ;
574 -> 590 ;
591 [label="X[37] <= 4300.5\nmse = 2.794\nsamples = 5\nvalue = 3.07"] ;
590 -> 591 ;
592 [label="X[51] <= 31.825\nmse = 3.49\nsamples = 4\nvalue = 3.088"] ;
591 -> 592 ;
593 [label="mse = 6.891\nsamples = 2\nvalue = 3.075"] ;
592 -> 593 ;
594 [label="mse = 0.09\nsamples = 2\nvalue = 3.1"] ;
592 -> 594 ;
595 [label="mse = 0.0\nsamples = 1\nvalue = 3.0"] ;
591 -> 595 ;
596 [label="mse = -0.0\nsamples = 1\nvalue = 3.3"] ;
590 -> 596 ;
597 [label="X[74] <= 2.727\nmse = 3.231\nsamples = 57\nvalue = 7.532"] ;
563 -> 597 ;
598 [label="X[70] <= 29.637\nmse = 1.414\nsamples = 40\nvalue = 6.831"] ;
597 -> 598 ;
599 [label="X[4] <= 34.845\nmse = 0.7\nsamples = 33\nvalue = 7.158"] ;
598 -> 599 ;
600 [label="X[34] <= 3205.304\nmse = 0.247\nsamples = 16\nvalue = 7.518"] ;
599 -> 600 ;
601 [label="X[14] <= 874.157\nmse = 0.024\nsamples = 2\nvalue = 8.345"] ;
600 -> 601 ;
602 [label="mse = 0.0\nsamples = 1\nvalue = 8.19"] ;
601 -> 602 ;
603 [label="mse = 0.0\nsamples = 1\nvalue = 8.5"] ;
601 -> 603 ;
604 [label="X[44] <= 56.826\nmse = 0.167\nsamples = 14\nvalue = 7.399"] ;
600 -> 604 ;
605 [label="X[42] <= 103.353\nmse = 0.159\nsamples = 13\nvalue = 7.438"] ;
604 -> 605 ;
606 [label="X[51] <= 33.433\nmse = 0.153\nsamples = 12\nvalue = 7.399"] ;
605 -> 606 ;
607 [label="mse = 0.202\nsamples = 9\nvalue = 7.421"] ;
606 -> 607 ;
608 [label="X[58] <= 25.254\nmse = 0.002\nsamples = 3\nvalue = 7.333"] ;
606 -> 608 ;
609 [label="mse = 0.003\nsamples = 2\nvalue = 7.35"] ;
608 -> 609 ;
610 [label="mse = -0.0\nsamples = 1\nvalue = 7.3"] ;
608 -> 610 ;
611 [label="mse = -0.0\nsamples = 1\nvalue = 7.9"] ;
605 -> 611 ;
612 [label="mse = 0.0\nsamples = 1\nvalue = 6.9"] ;
604 -> 612 ;
613 [label="X[2] <= 42.654\nmse = 0.89\nsamples = 17\nvalue = 6.82"] ;
599 -> 613 ;
614 [label="X[26] <= 0.826\nmse = 0.938\nsamples = 15\nvalue = 6.909"] ;
613 -> 614 ;
615 [label="mse = 0.0\nsamples = 1\nvalue = 7.3"] ;
614 -> 615 ;
616 [label="X[34] <= 4890.713\nmse = 0.993\nsamples = 14\nvalue = 6.881"] ;
614 -> 616 ;
617 [label="mse = 1.057\nsamples = 13\nvalue = 6.911"] ;
616 -> 617 ;
618 [label="mse = 0.0\nsamples = 1\nvalue = 6.5"] ;
616 -> 618 ;
619 [label="X[46] <= 0.677\nmse = 0.022\nsamples = 2\nvalue = 6.15"] ;
613 -> 619 ;
620 [label="mse = 0.0\nsamples = 1\nvalue = 6.3"] ;
619 -> 620 ;
621 [label="mse = -0.0\nsamples = 1\nvalue = 6.0"] ;
619 -> 621 ;
622 [label="X[5] <= 0.943\nmse = 1.901\nsamples = 7\nvalue = 5.29"] ;
598 -> 622 ;
623 [label="X[20] <= 344.809\nmse = 0.624\nsamples = 5\nvalue = 4.606"] ;
622 -> 623 ;
624 [label="X[18] <= 528.835\nmse = 0.096\nsamples = 2\nvalue = 3.69"] ;
623 -> 624 ;
625 [label="mse = 0.0\nsamples = 1\nvalue = 3.38"] ;
624 -> 625 ;
626 [label="mse = 0.0\nsamples = 1\nvalue = 4.0"] ;
624 -> 626 ;
627 [label="X[6] <= 0.674\nmse = 0.044\nsamples = 3\nvalue = 5.217"] ;
623 -> 627 ;
628 [label="mse = 0.0\nsamples = 1\nvalue = 5.5"] ;
627 -> 628 ;
629 [label="X[54] <= 1.294\nmse = 0.006\nsamples = 2\nvalue = 5.075"] ;
627 -> 629 ;
630 [label="mse = 0.0\nsamples = 1\nvalue = 5.0"] ;
629 -> 630 ;
631 [label="mse = 0.0\nsamples = 1\nvalue = 5.15"] ;
629 -> 631 ;
632 [label="mse = 1.0\nsamples = 2\nvalue = 7.0"] ;
622 -> 632 ;
633 [label="X[58] <= 13.353\nmse = 3.633\nsamples = 17\nvalue = 9.181"] ;
597 -> 633 ;
634 [label="X[32] <= 3406.541\nmse = 1.019\nsamples = 7\nvalue = 10.507"] ;
633 -> 634 ;
635 [label="X[48] <= 54.837\nmse = 0.364\nsamples = 4\nvalue = 9.762"] ;
634 -> 635 ;
636 [label="mse = 0.455\nsamples = 3\nvalue = 9.85"] ;
635 -> 636 ;
637 [label="mse = 0.0\nsamples = 1\nvalue = 9.5"] ;
635 -> 637 ;
638 [label="X[31] <= 3553.81\nmse = 0.167\nsamples = 3\nvalue = 11.5"] ;
634 -> 638 ;
639 [label="mse = 0.0\nsamples = 1\nvalue = 11.0"] ;
638 -> 639 ;
640 [label="X[19] <= 325.304\nmse = 0.062\nsamples = 2\nvalue = 11.75"] ;
638 -> 640 ;
641 [label="mse = 0.0\nsamples = 1\nvalue = 12.0"] ;
640 -> 641 ;
642 [label="mse = 0.0\nsamples = 1\nvalue = 11.5"] ;
640 -> 642 ;
643 [label="X[54] <= 41.943\nmse = 3.368\nsamples = 10\nvalue = 8.252"] ;
633 -> 643 ;
644 [label="X[18] <= 375.821\nmse = 3.036\nsamples = 7\nvalue = 7.66"] ;
643 -> 644 ;
645 [label="X[18] <= 368.458\nmse = 0.154\nsamples = 3\nvalue = 9.407"] ;
644 -> 645 ;
646 [label="X[14] <= 756.845\nmse = 0.001\nsamples = 2\nvalue = 9.13"] ;
645 -> 646 ;
647 [label="mse = 0.0\nsamples = 1\nvalue = 9.16"] ;
646 -> 647 ;
648 [label="mse = 0.0\nsamples = 1\nvalue = 9.1"] ;
646 -> 648 ;
649 [label="mse = -0.0\nsamples = 1\nvalue = 9.96"] ;
645 -> 649 ;
650 [label="X[56] <= 0.272\nmse = 1.194\nsamples = 4\nvalue = 6.35"] ;
644 -> 650 ;
651 [label="X[49] <= 36.926\nmse = 0.001\nsamples = 2\nvalue = 7.225"] ;
650 -> 651 ;
652 [label="mse = 0.0\nsamples = 1\nvalue = 7.2"] ;
651 -> 652 ;
653 [label="mse = 0.0\nsamples = 1\nvalue = 7.25"] ;
651 -> 653 ;
654 [label="mse = 0.856\nsamples = 2\nvalue = 5.475"] ;
650 -> 654 ;
655 [label="X[72] <= 3.494\nmse = 1.417\nsamples = 3\nvalue = 9.633"] ;
643 -> 655 ;
656 [label="mse = 0.0\nsamples = 1\nvalue = 8.04"] ;
655 -> 656 ;
657 [label="X[60] <= 10.304\nmse = 0.221\nsamples = 2\nvalue = 10.43"] ;
655 -> 657 ;
658 [label="mse = 0.0\nsamples = 1\nvalue = 9.96"] ;
657 -> 658 ;
659 [label="mse = 0.0\nsamples = 1\nvalue = 10.9"] ;
657 -> 659 ;
660 [label="mse = 0.0\nsamples = 1\nvalue = 18.05"] ;
562 -> 660 ;
661 [label="X[7] <= 93.931\nmse = 3.018\nsamples = 11\nvalue = 3.801"] ;
561 -> 661 ;
662 [label="X[12] <= 1033.189\nmse = 0.594\nsamples = 5\nvalue = 5.56"] ;
661 -> 662 ;
663 [label="X[63] <= 96.957\nmse = 0.165\nsamples = 4\nvalue = 5.9"] ;
662 -> 663 ;
664 [label="mse = 0.0\nsamples = 2\nvalue = 5.5"] ;
663 -> 664 ;
665 [label="X[64] <= 184.473\nmse = 0.01\nsamples = 2\nvalue = 6.3"] ;
663 -> 665 ;
666 [label="mse = 0.0\nsamples = 1\nvalue = 6.4"] ;
665 -> 666 ;
667 [label="mse = -0.0\nsamples = 1\nvalue = 6.2"] ;
665 -> 667 ;
668 [label="mse = 0.0\nsamples = 1\nvalue = 4.2"] ;
662 -> 668 ;
669 [label="X[41] <= 79.1\nmse = 0.31\nsamples = 6\nvalue = 2.335"] ;
661 -> 669 ;
670 [label="X[62] <= 54.404\nmse = 0.087\nsamples = 4\nvalue = 2.69"] ;
669 -> 670 ;
671 [label="mse = 0.0\nsamples = 1\nvalue = 3.2"] ;
670 -> 671 ;
672 [label="X[12] <= 782.732\nmse = 0.001\nsamples = 3\nvalue = 2.52"] ;
670 -> 672 ;
673 [label="mse = 0.0\nsamples = 2\nvalue = 2.5"] ;
672 -> 673 ;
674 [label="mse = -0.0\nsamples = 1\nvalue = 2.56"] ;
672 -> 674 ;
675 [label="mse = 0.001\nsamples = 2\nvalue = 1.625"] ;
669 -> 675 ;
676 [label="mse = -0.0\nsamples = 1\nvalue = 19.75"] ;
554 -> 676 ;
677 [label="X[24] <= 74.766\nmse = 5.689\nsamples = 16\nvalue = 2.513"] ;
553 -> 677 ;
678 [label="X[62] <= 43.239\nmse = 4.865\nsamples = 12\nvalue = 3.338"] ;
677 -> 678 ;
679 [label="X[2] <= 59.161\nmse = 6.049\nsamples = 9\nvalue = 3.639"] ;
678 -> 679 ;
680 [label="X[3] <= 39.335\nmse = 7.65\nsamples = 7\nvalue = 3.479"] ;
679 -> 680 ;
681 [label="X[60] <= 15.171\nmse = 8.923\nsamples = 6\nvalue = 3.458"] ;
680 -> 681 ;
682 [label="mse = 0.0\nsamples = 1\nvalue = 3.4"] ;
681 -> 682 ;
683 [label="mse = 10.706\nsamples = 5\nvalue = 3.47"] ;
681 -> 683 ;
684 [label="mse = -0.0\nsamples = 1\nvalue = 3.6"] ;
680 -> 684 ;
685 [label="X[5] <= 1.043\nmse = 0.04\nsamples = 2\nvalue = 4.2"] ;
679 -> 685 ;
686 [label="mse = 0.0\nsamples = 1\nvalue = 4.4"] ;
685 -> 686 ;
687 [label="mse = -0.0\nsamples = 1\nvalue = 4.0"] ;
685 -> 687 ;
688 [label="X[31] <= 4298.725\nmse = 0.222\nsamples = 3\nvalue = 2.433"] ;
678 -> 688 ;
689 [label="mse = 0.0\nsamples = 1\nvalue = 3.1"] ;
688 -> 689 ;
690 [label="mse = -0.0\nsamples = 2\nvalue = 2.1"] ;
688 -> 690 ;
691 [label="X[67] <= 166.0\nmse = 0.0\nsamples = 4\nvalue = 0.039"] ;
677 -> 691 ;
692 [label="mse = 0.0\nsamples = 2\nvalue = 0.024"] ;
691 -> 692 ;
693 [label="mse = 0.0\nsamples = 2\nvalue = 0.054"] ;
691 -> 693 ;
694 [label="X[41] <= 68.454\nmse = 2.095\nsamples = 58\nvalue = 2.927"] ;
552 -> 694 ;
695 [label="X[38] <= 1983.412\nmse = 1.601\nsamples = 28\nvalue = 3.946"] ;
694 -> 695 ;
696 [label="X[68] <= 22.307\nmse = 0.836\nsamples = 25\nvalue = 3.65"] ;
695 -> 696 ;
697 [label="X[26] <= 0.916\nmse = 0.187\nsamples = 3\nvalue = 2.2"] ;
696 -> 697 ;
698 [label="mse = 0.0\nsamples = 1\nvalue = 1.6"] ;
697 -> 698 ;
699 [label="X[14] <= 613.65\nmse = 0.01\nsamples = 2\nvalue = 2.5"] ;
697 -> 699 ;
700 [label="mse = 0.0\nsamples = 1\nvalue = 2.4"] ;
699 -> 700 ;
701 [label="mse = -0.0\nsamples = 1\nvalue = 2.6"] ;
699 -> 701 ;
702 [label="X[48] <= 55.009\nmse = 0.599\nsamples = 22\nvalue = 3.848"] ;
696 -> 702 ;
703 [label="X[40] <= 923.778\nmse = 0.289\nsamples = 13\nvalue = 4.355"] ;
702 -> 703 ;
704 [label="mse = 0.0\nsamples = 1\nvalue = 5.8"] ;
703 -> 704 ;
705 [label="X[70] <= 57.264\nmse = 0.124\nsamples = 12\nvalue = 4.235"] ;
703 -> 705 ;
706 [label="X[11] <= 645.067\nmse = 0.043\nsamples = 3\nvalue = 4.677"] ;
705 -> 706 ;
707 [label="X[20] <= 106.749\nmse = 0.007\nsamples = 2\nvalue = 4.815"] ;
706 -> 707 ;
708 [label="mse = 0.0\nsamples = 1\nvalue = 4.9"] ;
707 -> 708 ;
709 [label="mse = -0.0\nsamples = 1\nvalue = 4.73"] ;
707 -> 709 ;
710 [label="mse = 0.0\nsamples = 1\nvalue = 4.4"] ;
706 -> 710 ;
711 [label="X[26] <= 1.05\nmse = 0.065\nsamples = 9\nvalue = 4.088"] ;
705 -> 711 ;
712 [label="X[40] <= 1456.885\nmse = 0.065\nsamples = 4\nvalue = 3.9"] ;
711 -> 712 ;
713 [label="mse = 0.0\nsamples = 1\nvalue = 4.0"] ;
712 -> 713 ;
714 [label="X[31] <= 3768.0\nmse = 0.082\nsamples = 3\nvalue = 3.867"] ;
712 -> 714 ;
715 [label="mse = 0.123\nsamples = 2\nvalue = 3.85"] ;
714 -> 715 ;
716 [label="mse = -0.0\nsamples = 1\nvalue = 3.9"] ;
714 -> 716 ;
717 [label="X[55] <= 0.668\nmse = 0.013\nsamples = 5\nvalue = 4.238"] ;
711 -> 717 ;
718 [label="mse = 0.0\nsamples = 1\nvalue = 4.24"] ;
717 -> 718 ;
719 [label="mse = 0.017\nsamples = 4\nvalue = 4.238"] ;
717 -> 719 ;
720 [label="X[12] <= 833.352\nmse = 0.138\nsamples = 9\nvalue = 3.114"] ;
702 -> 720 ;
721 [label="X[12] <= 667.267\nmse = 0.083\nsamples = 8\nvalue = 3.204"] ;
720 -> 721 ;
722 [label="X[34] <= 2990.578\nmse = 0.06\nsamples = 3\nvalue = 2.91"] ;
721 -> 722 ;
723 [label="X[80] <= 0.881\nmse = 0.04\nsamples = 2\nvalue = 2.78"] ;
722 -> 723 ;
724 [label="mse = 0.0\nsamples = 1\nvalue = 2.58"] ;
723 -> 724 ;
725 [label="mse = -0.0\nsamples = 1\nvalue = 2.98"] ;
723 -> 725 ;
726 [label="mse = 0.0\nsamples = 1\nvalue = 3.17"] ;
722 -> 726 ;
727 [label="X[1] <= 64.99\nmse = 0.014\nsamples = 5\nvalue = 3.38"] ;
721 -> 727 ;
728 [label="X[64] <= 69.273\nmse = 0.002\nsamples = 3\nvalue = 3.467"] ;
727 -> 728 ;
729 [label="mse = 0.0\nsamples = 1\nvalue = 3.4"] ;
728 -> 729 ;
730 [label="mse = 0.0\nsamples = 2\nvalue = 3.5"] ;
728 -> 730 ;
731 [label="X[48] <= 105.946\nmse = 0.002\nsamples = 2\nvalue = 3.25"] ;
727 -> 731 ;
732 [label="mse = 0.0\nsamples = 1\nvalue = 3.3"] ;
731 -> 732 ;
733 [label="mse = 0.0\nsamples = 1\nvalue = 3.2"] ;
731 -> 733 ;
734 [label="mse = -0.0\nsamples = 1\nvalue = 2.4"] ;
720 -> 734 ;
735 [label="X[7] <= 66.15\nmse = 1.177\nsamples = 3\nvalue = 6.41"] ;
695 -> 735 ;
736 [label="mse = 0.0\nsamples = 1\nvalue = 4.93"] ;
735 -> 736 ;
737 [label="X[34] <= 3925.998\nmse = 0.122\nsamples = 2\nvalue = 7.15"] ;
735 -> 737 ;
738 [label="mse = 0.0\nsamples = 1\nvalue = 6.8"] ;
737 -> 738 ;
739 [label="mse = -0.0\nsamples = 1\nvalue = 7.5"] ;
737 -> 739 ;
740 [label="X[36] <= 0.874\nmse = 0.685\nsamples = 30\nvalue = 1.977"] ;
694 -> 740 ;
741 [label="X[28] <= 3.414\nmse = 0.41\nsamples = 17\nvalue = 1.442"] ;
740 -> 741 ;
742 [label="mse = 0.0\nsamples = 1\nvalue = 3.1"] ;
741 -> 742 ;
743 [label="X[40] <= 254.255\nmse = 0.253\nsamples = 16\nvalue = 1.338"] ;
741 -> 743 ;
744 [label="X[60] <= 26.508\nmse = 0.043\nsamples = 2\nvalue = 0.342"] ;
743 -> 744 ;
745 [label="mse = 0.0\nsamples = 1\nvalue = 0.55"] ;
744 -> 745 ;
746 [label="mse = -0.0\nsamples = 1\nvalue = 0.135"] ;
744 -> 746 ;
747 [label="X[4] <= 20.644\nmse = 0.121\nsamples = 14\nvalue = 1.48"] ;
743 -> 747 ;
748 [label="mse = 0.006\nsamples = 5\nvalue = 1.852"] ;
747 -> 748 ;
749 [label="X[29] <= 71.623\nmse = 0.066\nsamples = 9\nvalue = 1.274"] ;
747 -> 749 ;
750 [label="X[14] <= 667.073\nmse = 0.008\nsamples = 6\nvalue = 1.433"] ;
749 -> 750 ;
751 [label="mse = 0.0\nsamples = 1\nvalue = 1.6"] ;
750 -> 751 ;
752 [label="X[16] <= 0.591\nmse = 0.003\nsamples = 5\nvalue = 1.4"] ;
750 -> 752 ;
753 [label="X[26] <= 0.689\nmse = 0.003\nsamples = 4\nvalue = 1.412"] ;
752 -> 753 ;
754 [label="X[76] <= 0.41\nmse = 0.0\nsamples = 2\nvalue = 1.385"] ;
753 -> 754 ;
755 [label="mse = 0.0\nsamples = 1\nvalue = 1.4"] ;
754 -> 755 ;
756 [label="mse = 0.0\nsamples = 1\nvalue = 1.37"] ;
754 -> 756 ;
757 [label="mse = 0.005\nsamples = 2\nvalue = 1.44"] ;
753 -> 757 ;
758 [label="mse = 0.0\nsamples = 1\nvalue = 1.35"] ;
752 -> 758 ;
759 [label="X[32] <= 2880.009\nmse = 0.028\nsamples = 3\nvalue = 0.955"] ;
749 -> 759 ;
760 [label="mse = 0.0\nsamples = 1\nvalue = 1.0"] ;
759 -> 760 ;
761 [label="mse = 0.041\nsamples = 2\nvalue = 0.932"] ;
759 -> 761 ;
762 [label="X[26] <= 0.947\nmse = 0.179\nsamples = 13\nvalue = 2.677"] ;
740 -> 762 ;
763 [label="X[70] <= 68.887\nmse = 0.01\nsamples = 7\nvalue = 3.017"] ;
762 -> 763 ;
764 [label="X[18] <= 393.115\nmse = 0.002\nsamples = 2\nvalue = 3.15"] ;
763 -> 764 ;
765 [label="mse = 0.0\nsamples = 1\nvalue = 3.2"] ;
764 -> 765 ;
766 [label="mse = -0.0\nsamples = 1\nvalue = 3.1"] ;
764 -> 766 ;
767 [label="X[8] <= 28.279\nmse = 0.003\nsamples = 5\nvalue = 2.964"] ;
763 -> 767 ;
768 [label="X[70] <= 69.499\nmse = 0.002\nsamples = 3\nvalue = 2.933"] ;
767 -> 768 ;
769 [label="mse = 0.0\nsamples = 1\nvalue = 3.0"] ;
768 -> 769 ;
770 [label="mse = -0.0\nsamples = 2\nvalue = 2.9"] ;
768 -> 770 ;
771 [label="X[44] <= 64.927\nmse = 0.0\nsamples = 2\nvalue = 3.01"] ;
767 -> 771 ;
772 [label="mse = 0.0\nsamples = 1\nvalue = 3.0"] ;
771 -> 772 ;
773 [label="mse = 0.0\nsamples = 1\nvalue = 3.02"] ;
771 -> 773 ;
774 [label="X[66] <= 0.83\nmse = 0.083\nsamples = 6\nvalue = 2.28"] ;
762 -> 774 ;
775 [label="X[32] <= 3828.333\nmse = 0.034\nsamples = 2\nvalue = 1.925"] ;
774 -> 775 ;
776 [label="mse = 0.0\nsamples = 1\nvalue = 2.11"] ;
775 -> 776 ;
777 [label="mse = 0.0\nsamples = 1\nvalue = 1.74"] ;
775 -> 777 ;
778 [label="X[22] <= 157.375\nmse = 0.013\nsamples = 4\nvalue = 2.457"] ;
774 -> 778 ;
779 [label="X[61] <= 161.333\nmse = 0.003\nsamples = 2\nvalue = 2.35"] ;
778 -> 779 ;
780 [label="mse = 0.0\nsamples = 1\nvalue = 2.4"] ;
779 -> 780 ;
781 [label="mse = 0.0\nsamples = 1\nvalue = 2.3"] ;
779 -> 781 ;
782 [label="X[37] <= 5435.0\nmse = 0.001\nsamples = 2\nvalue = 2.565"] ;
778 -> 782 ;
783 [label="mse = 0.0\nsamples = 1\nvalue = 2.6"] ;
782 -> 783 ;
784 [label="mse = 0.0\nsamples = 1\nvalue = 2.53"] ;
782 -> 784 ;
785 [label="X[64] <= 36.737\nmse = 45.573\nsamples = 18\nvalue = 9.646"] ;
291 -> 785 ;
786 [label="X[64] <= 0.55\nmse = 8.216\nsamples = 17\nvalue = 8.154"] ;
785 -> 786 ;
787 [label="X[46] <= 0.725\nmse = 2.651\nsamples = 14\nvalue = 9.286"] ;
786 -> 787 ;
788 [label="X[49] <= 38.139\nmse = 0.777\nsamples = 8\nvalue = 10.263"] ;
787 -> 788 ;
789 [label="X[78] <= 1.02\nmse = 0.467\nsamples = 4\nvalue = 9.525"] ;
788 -> 789 ;
790 [label="mse = 0.36\nsamples = 2\nvalue = 9.6"] ;
789 -> 790 ;
791 [label="mse = 0.563\nsamples = 2\nvalue = 9.45"] ;
789 -> 791 ;
792 [label="mse = -0.0\nsamples = 4\nvalue = 11.0"] ;
788 -> 792 ;
793 [label="X[46] <= 0.726\nmse = 2.181\nsamples = 6\nvalue = 7.983"] ;
787 -> 793 ;
794 [label="X[30] <= 75.443\nmse = 0.49\nsamples = 2\nvalue = 6.7"] ;
793 -> 794 ;
795 [label="mse = 0.0\nsamples = 1\nvalue = 7.4"] ;
794 -> 795 ;
796 [label="mse = 0.0\nsamples = 1\nvalue = 6.0"] ;
794 -> 796 ;
797 [label="X[62] <= 19.914\nmse = 1.792\nsamples = 4\nvalue = 8.625"] ;
793 -> 797 ;
798 [label="mse = 3.422\nsamples = 2\nvalue = 8.35"] ;
797 -> 798 ;
799 [label="X[56] <= 0.623\nmse = 0.01\nsamples = 2\nvalue = 8.9"] ;
797 -> 799 ;
800 [label="mse = 0.0\nsamples = 1\nvalue = 9.0"] ;
799 -> 800 ;
801 [label="mse = -0.0\nsamples = 1\nvalue = 8.8"] ;
799 -> 801 ;
802 [label="X[30] <= 32.71\nmse = 0.34\nsamples = 3\nvalue = 2.875"] ;
786 -> 802 ;
803 [label="mse = 0.0\nsamples = 2\nvalue = 2.463"] ;
802 -> 803 ;
804 [label="mse = 0.0\nsamples = 1\nvalue = 3.7"] ;
802 -> 804 ;
805 [label="mse = -0.0\nsamples = 1\nvalue = 35.0"] ;
785 -> 805 ;
806 [label="X[60] <= 6.4\nmse = 29.51\nsamples = 533\nvalue = 8.058"] ;
238 -> 806 ;
807 [label="X[74] <= 4.357\nmse = 8.756\nsamples = 161\nvalue = 4.926"] ;
806 -> 807 ;
808 [label="X[43] <= 20.892\nmse = 5.997\nsamples = 83\nvalue = 3.611"] ;
807 -> 808 ;
809 [label="X[56] <= 0.492\nmse = 0.251\nsamples = 18\nvalue = 1.147"] ;
808 -> 809 ;
810 [label="X[19] <= 0.475\nmse = 0.05\nsamples = 7\nvalue = 0.603"] ;
809 -> 810 ;
811 [label="mse = 0.001\nsamples = 3\nvalue = 0.377"] ;
810 -> 811 ;
812 [label="X[61] <= 75.5\nmse = 0.02\nsamples = 4\nvalue = 0.772"] ;
810 -> 812 ;
813 [label="mse = 0.0\nsamples = 1\nvalue = 1.01"] ;
812 -> 813 ;
814 [label="X[20] <= 15.791\nmse = 0.001\nsamples = 3\nvalue = 0.693"] ;
812 -> 814 ;
815 [label="mse = 0.0\nsamples = 1\nvalue = 0.65"] ;
814 -> 815 ;
816 [label="X[58] <= 16.421\nmse = 0.0\nsamples = 2\nvalue = 0.715"] ;
814 -> 816 ;
817 [label="mse = 0.0\nsamples = 1\nvalue = 0.73"] ;
816 -> 817 ;
818 [label="mse = 0.0\nsamples = 1\nvalue = 0.7"] ;
816 -> 818 ;
819 [label="X[65] <= 0.428\nmse = 0.071\nsamples = 11\nvalue = 1.493"] ;
809 -> 819 ;
820 [label="mse = 0.022\nsamples = 2\nvalue = 1.85"] ;
819 -> 820 ;
821 [label="X[36] <= 0.675\nmse = 0.047\nsamples = 9\nvalue = 1.413"] ;
819 -> 821 ;
822 [label="X[22] <= 193.56\nmse = 0.044\nsamples = 3\nvalue = 1.503"] ;
821 -> 822 ;
823 [label="mse = 0.0\nsamples = 1\nvalue = 1.8"] ;
822 -> 823 ;
824 [label="X[36] <= 0.554\nmse = 0.0\nsamples = 2\nvalue = 1.355"] ;
822 -> 824 ;
825 [label="mse = 0.0\nsamples = 1\nvalue = 1.36"] ;
824 -> 825 ;
826 [label="mse = 0.0\nsamples = 1\nvalue = 1.35"] ;
824 -> 826 ;
827 [label="X[44] <= 19.736\nmse = 0.042\nsamples = 6\nvalue = 1.368"] ;
821 -> 827 ;
828 [label="X[44] <= 17.654\nmse = 0.023\nsamples = 5\nvalue = 1.436"] ;
827 -> 828 ;
829 [label="X[24] <= 185.724\nmse = 0.0\nsamples = 2\nvalue = 1.365"] ;
828 -> 829 ;
830 [label="mse = 0.0\nsamples = 1\nvalue = 1.36"] ;
829 -> 830 ;
831 [label="mse = -0.0\nsamples = 1\nvalue = 1.37"] ;
829 -> 831 ;
832 [label="mse = 0.033\nsamples = 3\nvalue = 1.483"] ;
828 -> 832 ;
833 [label="mse = 0.0\nsamples = 1\nvalue = 1.03"] ;
827 -> 833 ;
834 [label="X[48] <= 71.35\nmse = 5.441\nsamples = 65\nvalue = 4.294"] ;
808 -> 834 ;
835 [label="X[68] <= 19.151\nmse = 4.5\nsamples = 53\nvalue = 4.867"] ;
834 -> 835 ;
836 [label="X[45] <= 0.95\nmse = 2.883\nsamples = 46\nvalue = 5.4"] ;
835 -> 836 ;
837 [label="X[19] <= 189.921\nmse = 3.07\nsamples = 28\nvalue = 6.078"] ;
836 -> 837 ;
838 [label="X[31] <= 5015.75\nmse = 2.499\nsamples = 27\nvalue = 5.921"] ;
837 -> 838 ;
839 [label="X[29] <= 3.25\nmse = 3.654\nsamples = 14\nvalue = 6.429"] ;
838 -> 839 ;
840 [label="mse = 5.475\nsamples = 9\nvalue = 6.16"] ;
839 -> 840 ;
841 [label="X[26] <= 0.672\nmse = 0.01\nsamples = 5\nvalue = 6.914"] ;
839 -> 841 ;
842 [label="X[58] <= 5.82\nmse = 0.002\nsamples = 2\nvalue = 6.8"] ;
841 -> 842 ;
843 [label="mse = 0.0\nsamples = 1\nvalue = 6.84"] ;
842 -> 843 ;
844 [label="mse = -0.0\nsamples = 1\nvalue = 6.76"] ;
842 -> 844 ;
845 [label="X[58] <= 5.34\nmse = 0.001\nsamples = 3\nvalue = 6.99"] ;
841 -> 845 ;
846 [label="X[71] <= 3.833\nmse = 0.0\nsamples = 2\nvalue = 7.015"] ;
845 -> 846 ;
847 [label="mse = 0.0\nsamples = 1\nvalue = 7.0"] ;
846 -> 847 ;
848 [label="mse = -0.0\nsamples = 1\nvalue = 7.03"] ;
846 -> 848 ;
849 [label="mse = -0.0\nsamples = 1\nvalue = 6.94"] ;
845 -> 849 ;
850 [label="X[46] <= 0.673\nmse = 0.678\nsamples = 13\nvalue = 5.375"] ;
838 -> 850 ;
851 [label="X[68] <= 10.287\nmse = 0.466\nsamples = 11\nvalue = 5.602"] ;
850 -> 851 ;
852 [label="X[76] <= 0.626\nmse = 0.239\nsamples = 5\nvalue = 5.286"] ;
851 -> 852 ;
853 [label="X[32] <= 4887.712\nmse = 0.071\nsamples = 4\nvalue = 5.072"] ;
852 -> 853 ;
854 [label="mse = 0.0\nsamples = 1\nvalue = 4.7"] ;
853 -> 854 ;
855 [label="X[50] <= 9.31\nmse = 0.033\nsamples = 3\nvalue = 5.197"] ;
853 -> 855 ;
856 [label="mse = 0.042\nsamples = 2\nvalue = 5.145"] ;
855 -> 856 ;
857 [label="mse = -0.0\nsamples = 1\nvalue = 5.3"] ;
855 -> 857 ;
858 [label="mse = -0.0\nsamples = 1\nvalue = 6.14"] ;
852 -> 858 ;
859 [label="X[23] <= 163.239\nmse = 0.502\nsamples = 6\nvalue = 5.865"] ;
851 -> 859 ;
860 [label="mse = 0.557\nsamples = 5\nvalue = 5.778"] ;
859 -> 860 ;
861 [label="mse = -0.0\nsamples = 1\nvalue = 6.3"] ;
859 -> 861 ;
862 [label="mse = 0.001\nsamples = 2\nvalue = 4.125"] ;
850 -> 862 ;
863 [label="mse = -0.0\nsamples = 1\nvalue = 10.3"] ;
837 -> 863 ;
864 [label="X[18] <= 302.412\nmse = 0.766\nsamples = 18\nvalue = 4.346"] ;
836 -> 864 ;
865 [label="X[80] <= 1.626\nmse = 0.425\nsamples = 11\nvalue = 4.821"] ;
864 -> 865 ;
866 [label="mse = 0.04\nsamples = 2\nvalue = 4.3"] ;
865 -> 866 ;
867 [label="X[48] <= 28.756\nmse = 0.437\nsamples = 9\nvalue = 4.937"] ;
865 -> 867 ;
868 [label="mse = 0.761\nsamples = 5\nvalue = 4.846"] ;
867 -> 868 ;
869 [label="X[6] <= 0.555\nmse = 0.007\nsamples = 4\nvalue = 5.05"] ;
867 -> 869 ;
870 [label="mse = 0.01\nsamples = 2\nvalue = 5.0"] ;
869 -> 870 ;
871 [label="mse = -0.0\nsamples = 2\nvalue = 5.1"] ;
869 -> 871 ;
872 [label="X[46] <= 1.051\nmse = 0.391\nsamples = 7\nvalue = 3.6"] ;
864 -> 872 ;
873 [label="X[64] <= 0.709\nmse = 0.007\nsamples = 4\nvalue = 4.075"] ;
872 -> 873 ;
874 [label="mse = 0.0\nsamples = 1\nvalue = 4.0"] ;
873 -> 874 ;
875 [label="mse = 0.007\nsamples = 3\nvalue = 4.1"] ;
873 -> 875 ;
876 [label="X[61] <= 2.404\nmse = 0.202\nsamples = 3\nvalue = 2.967"] ;
872 -> 876 ;
877 [label="X[58] <= 4.438\nmse = 0.062\nsamples = 2\nvalue = 3.25"] ;
876 -> 877 ;
878 [label="mse = 0.0\nsamples = 1\nvalue = 3.0"] ;
877 -> 878 ;
879 [label="mse = 0.0\nsamples = 1\nvalue = 3.5"] ;
877 -> 879 ;
880 [label="mse = -0.0\nsamples = 1\nvalue = 2.4"] ;
876 -> 880 ;
881 [label="X[50] <= 7.57\nmse = 0.99\nsamples = 7\nvalue = 1.364"] ;
835 -> 881 ;
882 [label="X[37] <= 3468.0\nmse = 0.309\nsamples = 5\nvalue = 0.81"] ;
881 -> 882 ;
883 [label="X[70] <= 51.701\nmse = 0.002\nsamples = 2\nvalue = 1.445"] ;
882 -> 883 ;
884 [label="mse = 0.0\nsamples = 1\nvalue = 1.4"] ;
883 -> 884 ;
885 [label="mse = 0.0\nsamples = 1\nvalue = 1.49"] ;
883 -> 885 ;
886 [label="X[46] <= 0.34\nmse = 0.066\nsamples = 3\nvalue = 0.387"] ;
882 -> 886 ;
887 [label="X[60] <= 0.794\nmse = 0.011\nsamples = 2\nvalue = 0.215"] ;
886 -> 887 ;
888 [label="mse = 0.0\nsamples = 1\nvalue = 0.32"] ;
887 -> 888 ;
889 [label="mse = 0.0\nsamples = 1\nvalue = 0.11"] ;
887 -> 889 ;
890 [label="mse = 0.0\nsamples = 1\nvalue = 0.73"] ;
886 -> 890 ;
891 [label="X[32] <= 4634.81\nmse = 0.002\nsamples = 2\nvalue = 2.75"] ;
881 -> 891 ;
892 [label="mse = 0.0\nsamples = 1\nvalue = 2.7"] ;
891 -> 892 ;
893 [label="mse = -0.0\nsamples = 1\nvalue = 2.8"] ;
891 -> 893 ;
894 [label="X[26] <= 0.638\nmse = 1.726\nsamples = 12\nvalue = 1.76"] ;
834 -> 894 ;
895 [label="X[2] <= 72.209\nmse = 0.686\nsamples = 4\nvalue = 3.317"] ;
894 -> 895 ;
896 [label="mse = 0.0\nsamples = 1\nvalue = 1.9"] ;
895 -> 896 ;
897 [label="X[5] <= 0.585\nmse = 0.022\nsamples = 3\nvalue = 3.789"] ;
895 -> 897 ;
898 [label="mse = 0.0\nsamples = 2\nvalue = 3.684"] ;
897 -> 898 ;
899 [label="mse = 0.0\nsamples = 1\nvalue = 4.0"] ;
897 -> 899 ;
900 [label="X[25] <= 0.666\nmse = 0.429\nsamples = 8\nvalue = 0.982"] ;
894 -> 900 ;
901 [label="X[6] <= 0.666\nmse = 0.149\nsamples = 5\nvalue = 1.431"] ;
900 -> 901 ;
902 [label="mse = 0.0\nsamples = 1\nvalue = 1.02"] ;
901 -> 902 ;
903 [label="X[7] <= 35.088\nmse = 0.133\nsamples = 4\nvalue = 1.534"] ;
901 -> 903 ;
904 [label="mse = 0.001\nsamples = 2\nvalue = 1.532"] ;
903 -> 904 ;
905 [label="mse = 0.265\nsamples = 2\nvalue = 1.535"] ;
903 -> 905 ;
906 [label="mse = 0.001\nsamples = 3\nvalue = 0.233"] ;
900 -> 906 ;
907 [label="X[13] <= 1063.41\nmse = 7.892\nsamples = 78\nvalue = 6.326"] ;
807 -> 907 ;
908 [label="X[12] <= 636.613\nmse = 6.724\nsamples = 72\nvalue = 6.68"] ;
907 -> 908 ;
909 [label="mse = 0.0\nsamples = 1\nvalue = 16.9"] ;
908 -> 909 ;
910 [label="X[63] <= 48.95\nmse = 5.326\nsamples = 71\nvalue = 6.536"] ;
908 -> 910 ;
911 [label="X[22] <= 92.5\nmse = 3.836\nsamples = 58\nvalue = 7.192"] ;
910 -> 911 ;
912 [label="mse = 1.0\nsamples = 2\nvalue = 13.0"] ;
911 -> 912 ;
913 [label="X[48] <= 50.784\nmse = 2.689\nsamples = 56\nvalue = 6.984"] ;
911 -> 913 ;
914 [label="X[68] <= 29.74\nmse = 1.756\nsamples = 38\nvalue = 6.447"] ;
913 -> 914 ;
915 [label="X[42] <= 47.671\nmse = 1.199\nsamples = 36\nvalue = 6.627"] ;
914 -> 915 ;
916 [label="X[24] <= 173.282\nmse = 0.153\nsamples = 14\nvalue = 7.164"] ;
915 -> 916 ;
917 [label="X[22] <= 171.765\nmse = 0.058\nsamples = 6\nvalue = 7.323"] ;
916 -> 917 ;
918 [label="mse = 0.0\nsamples = 1\nvalue = 6.86"] ;
917 -> 918 ;
919 [label="X[20] <= 3.426\nmse = 0.018\nsamples = 5\nvalue = 7.416"] ;
917 -> 919 ;
920 [label="mse = 0.024\nsamples = 2\nvalue = 7.305"] ;
919 -> 920 ;
921 [label="X[22] <= 173.088\nmse = 0.001\nsamples = 3\nvalue = 7.49"] ;
919 -> 921 ;
922 [label="X[34] <= 5397.464\nmse = 0.0\nsamples = 2\nvalue = 7.475"] ;
921 -> 922 ;
923 [label="mse = 0.0\nsamples = 1\nvalue = 7.49"] ;
922 -> 923 ;
924 [label="mse = 0.0\nsamples = 1\nvalue = 7.46"] ;
922 -> 924 ;
925 [label="mse = 0.0\nsamples = 1\nvalue = 7.52"] ;
921 -> 925 ;
926 [label="X[56] <= 0.69\nmse = 0.191\nsamples = 8\nvalue = 7.045"] ;
916 -> 926 ;
927 [label="X[18] <= 69.245\nmse = 0.215\nsamples = 7\nvalue = 7.023"] ;
926 -> 927 ;
928 [label="mse = 0.493\nsamples = 3\nvalue = 6.997"] ;
927 -> 928 ;
929 [label="X[56] <= 0.686\nmse = 0.006\nsamples = 4\nvalue = 7.042"] ;
927 -> 929 ;
930 [label="mse = 0.0\nsamples = 1\nvalue = 7.07"] ;
929 -> 930 ;
931 [label="mse = 0.007\nsamples = 3\nvalue = 7.033"] ;
929 -> 931 ;
932 [label="mse = -0.0\nsamples = 1\nvalue = 7.2"] ;
926 -> 932 ;
933 [label="X[63] <= 34.621\nmse = 1.565\nsamples = 22\nvalue = 6.285"] ;
915 -> 933 ;
934 [label="X[2] <= 50.578\nmse = 2.094\nsamples = 13\nvalue = 6.006"] ;
933 -> 934 ;
935 [label="X[50] <= 4.146\nmse = 3.734\nsamples = 7\nvalue = 6.241"] ;
934 -> 935 ;
936 [label="mse = 4.352\nsamples = 6\nvalue = 6.267"] ;
935 -> 936 ;
937 [label="mse = -0.0\nsamples = 1\nvalue = 6.09"] ;
935 -> 937 ;
938 [label="X[16] <= 0.232\nmse = 0.039\nsamples = 6\nvalue = 5.732"] ;
934 -> 938 ;
939 [label="X[39] <= 400.75\nmse = 0.008\nsamples = 2\nvalue = 5.49"] ;
938 -> 939 ;
940 [label="mse = 0.0\nsamples = 1\nvalue = 5.4"] ;
939 -> 940 ;
941 [label="mse = 0.0\nsamples = 1\nvalue = 5.58"] ;
939 -> 941 ;
942 [label="X[27] <= 61.5\nmse = 0.011\nsamples = 4\nvalue = 5.853"] ;
938 -> 942 ;
943 [label="mse = 0.02\nsamples = 2\nvalue = 5.89"] ;
942 -> 943 ;
944 [label="X[66] <= 0.67\nmse = 0.0\nsamples = 2\nvalue = 5.815"] ;
942 -> 944 ;
945 [label="mse = 0.0\nsamples = 1\nvalue = 5.8"] ;
944 -> 945 ;
946 [label="mse = 0.0\nsamples = 1\nvalue = 5.83"] ;
944 -> 946 ;
947 [label="X[4] <= 55.468\nmse = 0.525\nsamples = 9\nvalue = 6.689"] ;
933 -> 947 ;
948 [label="mse = 0.0\nsamples = 2\nvalue = 6.4"] ;
947 -> 948 ;
949 [label="X[62] <= 38.54\nmse = 0.645\nsamples = 7\nvalue = 6.771"] ;
947 -> 949 ;
950 [label="mse = 0.747\nsamples = 6\nvalue = 6.8"] ;
949 -> 950 ;
951 [label="mse = -0.0\nsamples = 1\nvalue = 6.6"] ;
949 -> 951 ;
952 [label="X[27] <= 85.0\nmse = 0.64\nsamples = 2\nvalue = 3.2"] ;
914 -> 952 ;
953 [label="mse = 0.0\nsamples = 1\nvalue = 4.0"] ;
952 -> 953 ;
954 [label="mse = -0.0\nsamples = 1\nvalue = 2.4"] ;
952 -> 954 ;
955 [label="X[42] <= 51.605\nmse = 2.762\nsamples = 18\nvalue = 8.119"] ;
913 -> 955 ;
956 [label="mse = 0.0\nsamples = 1\nvalue = 12.8"] ;
955 -> 956 ;
957 [label="X[48] <= 81.272\nmse = 1.56\nsamples = 17\nvalue = 7.844"] ;
955 -> 957 ;
958 [label="X[66] <= 0.016\nmse = 0.086\nsamples = 3\nvalue = 5.74"] ;
957 -> 958 ;
959 [label="mse = 0.0\nsamples = 1\nvalue = 6.13"] ;
958 -> 959 ;
960 [label="X[58] <= 22.399\nmse = 0.016\nsamples = 2\nvalue = 5.545"] ;
958 -> 960 ;
961 [label="mse = 0.0\nsamples = 1\nvalue = 5.42"] ;
960 -> 961 ;
962 [label="mse = 0.0\nsamples = 1\nvalue = 5.67"] ;
960 -> 962 ;
963 [label="X[40] <= 737.827\nmse = 0.724\nsamples = 14\nvalue = 8.294"] ;
957 -> 963 ;
964 [label="X[14] <= 665.604\nmse = 0.531\nsamples = 8\nvalue = 8.739"] ;
963 -> 964 ;
965 [label="X[28] <= 197.8\nmse = 0.007\nsamples = 3\nvalue = 9.127"] ;
964 -> 965 ;
966 [label="X[74] <= 4.993\nmse = 0.002\nsamples = 2\nvalue = 9.075"] ;
965 -> 966 ;
967 [label="mse = 0.0\nsamples = 1\nvalue = 9.12"] ;
966 -> 967 ;
968 [label="mse = 0.0\nsamples = 1\nvalue = 9.03"] ;
966 -> 968 ;
969 [label="mse = 0.0\nsamples = 1\nvalue = 9.23"] ;
965 -> 969 ;
970 [label="X[7] <= 68.426\nmse = 0.701\nsamples = 5\nvalue = 8.506"] ;
964 -> 970 ;
971 [label="mse = 0.877\nsamples = 4\nvalue = 8.508"] ;
970 -> 971 ;
972 [label="mse = 0.0\nsamples = 1\nvalue = 8.5"] ;
970 -> 972 ;
973 [label="X[74] <= 4.934\nmse = 0.367\nsamples = 6\nvalue = 7.702"] ;
963 -> 973 ;
974 [label="X[36] <= 0.305\nmse = 0.402\nsamples = 5\nvalue = 7.622"] ;
973 -> 974 ;
975 [label="mse = 0.0\nsamples = 1\nvalue = 7.33"] ;
974 -> 975 ;
976 [label="mse = 0.476\nsamples = 4\nvalue = 7.695"] ;
974 -> 976 ;
977 [label="mse = -0.0\nsamples = 1\nvalue = 8.1"] ;
973 -> 977 ;
978 [label="X[38] <= 5828.3\nmse = 1.493\nsamples = 13\nvalue = 3.609"] ;
910 -> 978 ;
979 [label="X[10] <= 6.095\nmse = 0.384\nsamples = 7\nvalue = 2.663"] ;
978 -> 979 ;
980 [label="X[60] <= 2.622\nmse = 0.073\nsamples = 4\nvalue = 3.148"] ;
979 -> 980 ;
981 [label="X[19] <= 64.775\nmse = 0.009\nsamples = 2\nvalue = 3.405"] ;
980 -> 981 ;
982 [label="mse = 0.0\nsamples = 1\nvalue = 3.31"] ;
981 -> 982 ;
983 [label="mse = -0.0\nsamples = 1\nvalue = 3.5"] ;
981 -> 983 ;
984 [label="X[75] <= 0.674\nmse = 0.004\nsamples = 2\nvalue = 2.89"] ;
980 -> 984 ;
985 [label="mse = 0.0\nsamples = 1\nvalue = 2.83"] ;
984 -> 985 ;
986 [label="mse = 0.0\nsamples = 1\nvalue = 2.95"] ;
984 -> 986 ;
987 [label="X[54] <= 21.3\nmse = 0.068\nsamples = 3\nvalue = 2.017"] ;
979 -> 987 ;
988 [label="X[60] <= 3.781\nmse = 0.013\nsamples = 2\nvalue = 1.845"] ;
987 -> 988 ;
989 [label="mse = 0.0\nsamples = 1\nvalue = 1.96"] ;
988 -> 989 ;
990 [label="mse = 0.0\nsamples = 1\nvalue = 1.73"] ;
988 -> 990 ;
991 [label="mse = 0.0\nsamples = 1\nvalue = 2.36"] ;
987 -> 991 ;
992 [label="X[36] <= 0.147\nmse = 0.524\nsamples = 6\nvalue = 4.713"] ;
978 -> 992 ;
993 [label="X[72] <= 4.977\nmse = 0.098\nsamples = 5\nvalue = 4.416"] ;
992 -> 993 ;
994 [label="X[68] <= 26.078\nmse = 0.0\nsamples = 2\nvalue = 4.055"] ;
993 -> 994 ;
995 [label="mse = 0.0\nsamples = 1\nvalue = 4.05"] ;
994 -> 995 ;
996 [label="mse = 0.0\nsamples = 1\nvalue = 4.06"] ;
994 -> 996 ;
997 [label="X[68] <= 28.765\nmse = 0.018\nsamples = 3\nvalue = 4.657"] ;
993 -> 997 ;
998 [label="mse = 0.0\nsamples = 1\nvalue = 4.49"] ;
997 -> 998 ;
999 [label="X[41] <= 70.825\nmse = 0.006\nsamples = 2\nvalue = 4.74"] ;
997 -> 999 ;
1000 [label="mse = 0.0\nsamples = 1\nvalue = 4.82"] ;
999 -> 1000 ;
1001 [label="mse = 0.0\nsamples = 1\nvalue = 4.66"] ;
999 -> 1001 ;
1002 [label="mse = 0.0\nsamples = 1\nvalue = 6.2"] ;
992 -> 1002 ;
1003 [label="X[14] <= 1013.528\nmse = 2.41\nsamples = 6\nvalue = 2.083"] ;
907 -> 1003 ;
1004 [label="X[22] <= 101.965\nmse = 0.43\nsamples = 3\nvalue = 3.517"] ;
1003 -> 1004 ;
1005 [label="mse = 0.57\nsamples = 2\nvalue = 3.675"] ;
1004 -> 1005 ;
1006 [label="mse = 0.0\nsamples = 1\nvalue = 3.2"] ;
1004 -> 1006 ;
1007 [label="X[12] <= 1130.875\nmse = 0.281\nsamples = 3\nvalue = 0.65"] ;
1003 -> 1007 ;
1008 [label="mse = 0.0\nsamples = 2\nvalue = 0.275"] ;
1007 -> 1008 ;
1009 [label="mse = 0.0\nsamples = 1\nvalue = 1.4"] ;
1007 -> 1009 ;
1010 [label="X[44] <= 84.53\nmse = 32.413\nsamples = 372\nvalue = 9.413"] ;
806 -> 1010 ;
1011 [label="X[69] <= 22.115\nmse = 32.151\nsamples = 211\nvalue = 11.864"] ;
1010 -> 1011 ;
1012 [label="X[58] <= 5.88\nmse = 39.366\nsamples = 46\nvalue = 6.293"] ;
1011 -> 1012 ;
1013 [label="mse = 0.0\nsamples = 1\nvalue = 45.0"] ;
1012 -> 1013 ;
1014 [label="X[80] <= 1.0\nmse = 6.206\nsamples = 45\nvalue = 5.433"] ;
1012 -> 1014 ;
1015 [label="X[48] <= 9.777\nmse = 5.638\nsamples = 36\nvalue = 4.858"] ;
1014 -> 1015 ;
1016 [label="X[56] <= 0.491\nmse = 5.666\nsamples = 8\nvalue = 7.206"] ;
1015 -> 1016 ;
1017 [label="X[32] <= 4317.297\nmse = 0.09\nsamples = 2\nvalue = 9.5"] ;
1016 -> 1017 ;
1018 [label="mse = 0.0\nsamples = 1\nvalue = 9.8"] ;
1017 -> 1018 ;
1019 [label="mse = 0.0\nsamples = 1\nvalue = 9.2"] ;
1017 -> 1019 ;
1020 [label="X[54] <= 41.174\nmse = 5.187\nsamples = 6\nvalue = 6.442"] ;
1016 -> 1020 ;
1021 [label="X[30] <= 51.608\nmse = 4.34\nsamples = 5\nvalue = 7.002"] ;
1020 -> 1021 ;
1022 [label="mse = 7.317\nsamples = 2\nvalue = 6.305"] ;
1021 -> 1022 ;
1023 [label="X[30] <= 51.827\nmse = 1.816\nsamples = 3\nvalue = 7.467"] ;
1021 -> 1023 ;
1024 [label="mse = 0.0\nsamples = 1\nvalue = 7.5"] ;
1023 -> 1024 ;
1025 [label="mse = 2.722\nsamples = 2\nvalue = 7.45"] ;
1023 -> 1025 ;
1026 [label="mse = 0.0\nsamples = 1\nvalue = 3.64"] ;
1020 -> 1026 ;
1027 [label="X[67] <= 28.987\nmse = 3.605\nsamples = 28\nvalue = 4.187"] ;
1015 -> 1027 ;
1028 [label="X[36] <= 0.946\nmse = 3.015\nsamples = 17\nvalue = 4.896"] ;
1027 -> 1028 ;
1029 [label="X[78] <= 2.05\nmse = 3.428\nsamples = 14\nvalue = 4.707"] ;
1028 -> 1029 ;
1030 [label="X[28] <= 55.95\nmse = 3.61\nsamples = 13\nvalue = 4.784"] ;
1029 -> 1030 ;
1031 [label="X[24] <= 122.22\nmse = 4.655\nsamples = 10\nvalue = 4.873"] ;
1030 -> 1031 ;
1032 [label="X[54] <= 21.621\nmse = 6.611\nsamples = 7\nvalue = 4.829"] ;
1031 -> 1032 ;
1033 [label="mse = 0.0\nsamples = 1\nvalue = 4.85"] ;
1032 -> 1033 ;
1034 [label="mse = 7.712\nsamples = 6\nvalue = 4.825"] ;
1032 -> 1034 ;
1035 [label="X[76] <= 1.037\nmse = 0.077\nsamples = 3\nvalue = 4.977"] ;
1031 -> 1035 ;
1036 [label="mse = 0.116\nsamples = 2\nvalue = 4.97"] ;
1035 -> 1036 ;
1037 [label="mse = -0.0\nsamples = 1\nvalue = 4.99"] ;
1035 -> 1037 ;
1038 [label="X[8] <= 28.912\nmse = 0.01\nsamples = 3\nvalue = 4.487"] ;
1030 -> 1038 ;
1039 [label="mse = 0.0\nsamples = 1\nvalue = 4.36"] ;
1038 -> 1039 ;
1040 [label="X[28] <= 93.949\nmse = 0.002\nsamples = 2\nvalue = 4.55"] ;
1038 -> 1040 ;
1041 [label="mse = 0.0\nsamples = 1\nvalue = 4.6"] ;
1040 -> 1041 ;
1042 [label="mse = 0.0\nsamples = 1\nvalue = 4.5"] ;
1040 -> 1042 ;
1043 [label="mse = -0.0\nsamples = 1\nvalue = 3.71"] ;
1029 -> 1043 ;
1044 [label="X[68] <= 7.57\nmse = 0.135\nsamples = 3\nvalue = 5.78"] ;
1028 -> 1044 ;
1045 [label="mse = 0.0\nsamples = 1\nvalue = 6.24"] ;
1044 -> 1045 ;
1046 [label="X[24] <= 127.004\nmse = 0.044\nsamples = 2\nvalue = 5.55"] ;
1044 -> 1046 ;
1047 [label="mse = 0.0\nsamples = 1\nvalue = 5.76"] ;
1046 -> 1047 ;
1048 [label="mse = 0.0\nsamples = 1\nvalue = 5.34"] ;
1046 -> 1048 ;
1049 [label="X[10] <= 38.355\nmse = 2.541\nsamples = 11\nvalue = 3.092"] ;
1027 -> 1049 ;
1050 [label="X[56] <= 0.461\nmse = 1.011\nsamples = 10\nvalue = 2.689"] ;
1049 -> 1050 ;
1051 [label="X[66] <= 0.005\nmse = 0.947\nsamples = 5\nvalue = 3.31"] ;
1050 -> 1051 ;
1052 [label="X[50] <= 21.517\nmse = 0.018\nsamples = 2\nvalue = 2.165"] ;
1051 -> 1052 ;
1053 [label="mse = 0.0\nsamples = 1\nvalue = 2.03"] ;
1052 -> 1053 ;
1054 [label="mse = -0.0\nsamples = 1\nvalue = 2.3"] ;
1052 -> 1054 ;
1055 [label="X[56] <= 0.247\nmse = 0.11\nsamples = 3\nvalue = 4.073"] ;
1051 -> 1055 ;
1056 [label="mse = 0.0\nsamples = 1\nvalue = 4.54"] ;
1055 -> 1056 ;
1057 [label="X[5] <= 0.79\nmse = 0.002\nsamples = 2\nvalue = 3.84"] ;
1055 -> 1057 ;
1058 [label="mse = 0.0\nsamples = 1\nvalue = 3.8"] ;
1057 -> 1058 ;
1059 [label="mse = 0.0\nsamples = 1\nvalue = 3.88"] ;
1057 -> 1059 ;
1060 [label="X[8] <= 15.033\nmse = 0.302\nsamples = 5\nvalue = 2.068"] ;
1050 -> 1060 ;
1061 [label="X[26] <= 0.843\nmse = 0.068\nsamples = 2\nvalue = 2.66"] ;
1060 -> 1061 ;
1062 [label="mse = 0.0\nsamples = 1\nvalue = 2.4"] ;
1061 -> 1062 ;
1063 [label="mse = -0.0\nsamples = 1\nvalue = 2.92"] ;
1061 -> 1063 ;
1064 [label="X[59] <= 9.768\nmse = 0.07\nsamples = 3\nvalue = 1.673"] ;
1060 -> 1064 ;
1065 [label="mse = 0.0\nsamples = 1\nvalue = 1.3"] ;
1064 -> 1065 ;
1066 [label="mse = -0.0\nsamples = 2\nvalue = 1.86"] ;
1064 -> 1066 ;
1067 [label="mse = -0.0\nsamples = 1\nvalue = 7.12"] ;
1049 -> 1067 ;
1068 [label="X[69] <= 18.761\nmse = 1.88\nsamples = 9\nvalue = 7.73"] ;
1014 -> 1068 ;
1069 [label="X[20] <= 283.52\nmse = 0.245\nsamples = 7\nvalue = 8.367"] ;
1068 -> 1069 ;
1070 [label="X[47] <= 51.65\nmse = 0.006\nsamples = 2\nvalue = 8.175"] ;
1069 -> 1070 ;
1071 [label="mse = 0.0\nsamples = 1\nvalue = 8.1"] ;
1070 -> 1071 ;
1072 [label="mse = -0.0\nsamples = 1\nvalue = 8.25"] ;
1070 -> 1072 ;
1073 [label="mse = 0.32\nsamples = 5\nvalue = 8.444"] ;
1069 -> 1073 ;
1074 [label="X[55] <= 0.701\nmse = 1.21\nsamples = 2\nvalue = 5.5"] ;
1068 -> 1074 ;
1075 [label="mse = 0.0\nsamples = 1\nvalue = 4.4"] ;
1074 -> 1075 ;
1076 [label="mse = 0.0\nsamples = 1\nvalue = 6.6"] ;
1074 -> 1076 ;
1077 [label="X[66] <= 0.581\nmse = 19.076\nsamples = 165\nvalue = 13.417"] ;
1011 -> 1077 ;
1078 [label="X[30] <= 66.52\nmse = 16.016\nsamples = 86\nvalue = 11.582"] ;
1077 -> 1078 ;
1079 [label="X[43] <= 57.336\nmse = 19.636\nsamples = 17\nvalue = 7.672"] ;
1078 -> 1079 ;
1080 [label="X[50] <= 24.983\nmse = 6.828\nsamples = 14\nvalue = 6.094"] ;
1079 -> 1080 ;
1081 [label="X[64] <= 0.883\nmse = 1.21\nsamples = 6\nvalue = 8.73"] ;
1080 -> 1081 ;
1082 [label="mse = 0.0\nsamples = 1\nvalue = 6.48"] ;
1081 -> 1082 ;
1083 [label="X[46] <= 0.925\nmse = 0.238\nsamples = 5\nvalue = 9.18"] ;
1081 -> 1083 ;
1084 [label="X[56] <= 0.664\nmse = 0.032\nsamples = 4\nvalue = 8.95"] ;
1083 -> 1084 ;
1085 [label="X[4] <= 58.898\nmse = 0.01\nsamples = 2\nvalue = 9.1"] ;
1084 -> 1085 ;
1086 [label="mse = 0.0\nsamples = 1\nvalue = 9.2"] ;
1085 -> 1086 ;
1087 [label="mse = 0.0\nsamples = 1\nvalue = 9.0"] ;
1085 -> 1087 ;
1088 [label="X[8] <= 57.205\nmse = 0.01\nsamples = 2\nvalue = 8.8"] ;
1084 -> 1088 ;
1089 [label="mse = 0.0\nsamples = 1\nvalue = 8.9"] ;
1088 -> 1089 ;
1090 [label="mse = -0.0\nsamples = 1\nvalue = 8.7"] ;
1088 -> 1090 ;
1091 [label="mse = -0.0\nsamples = 1\nvalue = 10.1"] ;
1083 -> 1091 ;
1092 [label="X[66] <= 0.502\nmse = 1.923\nsamples = 8\nvalue = 4.118"] ;
1080 -> 1092 ;
1093 [label="X[23] <= 104.225\nmse = 0.057\nsamples = 4\nvalue = 5.325"] ;
1092 -> 1093 ;
1094 [label="mse = 0.01\nsamples = 2\nvalue = 5.1"] ;
1093 -> 1094 ;
1095 [label="X[75] <= 0.833\nmse = 0.002\nsamples = 2\nvalue = 5.55"] ;
1093 -> 1095 ;
1096 [label="mse = 0.0\nsamples = 1\nvalue = 5.5"] ;
1095 -> 1096 ;
1097 [label="mse = 0.0\nsamples = 1\nvalue = 5.6"] ;
1095 -> 1097 ;
1098 [label="X[69] <= 83.311\nmse = 0.873\nsamples = 4\nvalue = 2.91"] ;
1092 -> 1098 ;
1099 [label="X[45] <= 0.757\nmse = 0.012\nsamples = 3\nvalue = 3.447"] ;
1098 -> 1099 ;
1100 [label="mse = 0.0\nsamples = 1\nvalue = 3.6"] ;
1099 -> 1100 ;
1101 [label="mse = 0.0\nsamples = 2\nvalue = 3.37"] ;
1099 -> 1101 ;
1102 [label="mse = -0.0\nsamples = 1\nvalue = 1.3"] ;
1098 -> 1102 ;
1103 [label="X[52] <= 11.048\nmse = 13.602\nsamples = 3\nvalue = 15.033"] ;
1079 -> 1103 ;
1104 [label="mse = 0.0\nsamples = 1\nvalue = 9.9"] ;
1103 -> 1104 ;
1105 [label="X[53] <= 10.077\nmse = 0.64\nsamples = 2\nvalue = 17.6"] ;
1103 -> 1105 ;
1106 [label="mse = 0.0\nsamples = 1\nvalue = 16.8"] ;
1105 -> 1106 ;
1107 [label="mse = -0.0\nsamples = 1\nvalue = 18.4"] ;
1105 -> 1107 ;
1108 [label="X[73] <= 4.362\nmse = 10.429\nsamples = 69\nvalue = 12.545"] ;
1078 -> 1108 ;
1109 [label="X[64] <= 1.232\nmse = 8.661\nsamples = 68\nvalue = 12.712"] ;
1108 -> 1109 ;
1110 [label="X[12] <= 1059.286\nmse = 9.084\nsamples = 23\nvalue = 14.312"] ;
1109 -> 1110 ;
1111 [label="X[1] <= 52.525\nmse = 7.879\nsamples = 18\nvalue = 15.132"] ;
1110 -> 1111 ;
1112 [label="X[78] <= 2.347\nmse = 0.695\nsamples = 7\nvalue = 16.65"] ;
1111 -> 1112 ;
1113 [label="X[69] <= 41.706\nmse = 0.77\nsamples = 5\nvalue = 16.41"] ;
1112 -> 1113 ;
1114 [label="mse = 0.0\nsamples = 1\nvalue = 16.1"] ;
1113 -> 1114 ;
1115 [label="X[18] <= 606.13\nmse = 0.933\nsamples = 4\nvalue = 16.488"] ;
1113 -> 1115 ;
1116 [label="mse = 0.0\nsamples = 1\nvalue = 16.35"] ;
1115 -> 1116 ;
1117 [label="mse = 1.236\nsamples = 3\nvalue = 16.533"] ;
1115 -> 1117 ;
1118 [label="X[48] <= 41.88\nmse = 0.002\nsamples = 2\nvalue = 17.25"] ;
1112 -> 1118 ;
1119 [label="mse = 0.0\nsamples = 1\nvalue = 17.2"] ;
1118 -> 1119 ;
1120 [label="mse = 0.0\nsamples = 1\nvalue = 17.3"] ;
1118 -> 1120 ;
1121 [label="X[21] <= 140.167\nmse = 10.052\nsamples = 11\nvalue = 14.166"] ;
1111 -> 1121 ;
1122 [label="X[22] <= 125.8\nmse = 11.033\nsamples = 10\nvalue = 14.213"] ;
1121 -> 1122 ;
1123 [label="mse = 0.0\nsamples = 1\nvalue = 14.4"] ;
1122 -> 1123 ;
1124 [label="mse = 12.254\nsamples = 9\nvalue = 14.192"] ;
1122 -> 1124 ;
1125 [label="mse = 0.0\nsamples = 1\nvalue = 13.7"] ;
1121 -> 1125 ;
1126 [label="X[79] <= 1.124\nmse = 2.286\nsamples = 5\nvalue = 11.36"] ;
1110 -> 1126 ;
1127 [label="mse = 0.0\nsamples = 1\nvalue = 8.5"] ;
1126 -> 1127 ;
1128 [label="X[10] <= 38.635\nmse = 0.302\nsamples = 4\nvalue = 12.075"] ;
1126 -> 1128 ;
1129 [label="X[58] <= 10.472\nmse = 0.09\nsamples = 2\nvalue = 11.6"] ;
1128 -> 1129 ;
1130 [label="mse = 0.0\nsamples = 1\nvalue = 11.3"] ;
1129 -> 1130 ;
1131 [label="mse = -0.0\nsamples = 1\nvalue = 11.9"] ;
1129 -> 1131 ;
1132 [label="X[4] <= 31.468\nmse = 0.063\nsamples = 2\nvalue = 12.55"] ;
1128 -> 1132 ;
1133 [label="mse = 0.0\nsamples = 1\nvalue = 12.3"] ;
1132 -> 1133 ;
1134 [label="mse = 0.0\nsamples = 1\nvalue = 12.8"] ;
1132 -> 1134 ;
1135 [label="X[62] <= 89.898\nmse = 6.468\nsamples = 45\nvalue = 11.894"] ;
1109 -> 1135 ;
1136 [label="X[42] <= 51.967\nmse = 7.396\nsamples = 29\nvalue = 11.148"] ;
1135 -> 1136 ;
1137 [label="X[16] <= 0.65\nmse = 8.293\nsamples = 11\nvalue = 12.8"] ;
1136 -> 1137 ;
1138 [label="X[58] <= 13.861\nmse = 11.728\nsamples = 7\nvalue = 12.143"] ;
1137 -> 1138 ;
1139 [label="mse = 0.0\nsamples = 1\nvalue = 13.3"] ;
1138 -> 1139 ;
1140 [label="X[49] <= 36.0\nmse = 13.422\nsamples = 6\nvalue = 11.95"] ;
1138 -> 1140 ;
1141 [label="mse = 16.102\nsamples = 5\nvalue = 11.92"] ;
1140 -> 1141 ;
1142 [label="mse = -0.0\nsamples = 1\nvalue = 12.1"] ;
1140 -> 1142 ;
1143 [label="X[71] <= 3.667\nmse = 0.203\nsamples = 4\nvalue = 13.95"] ;
1137 -> 1143 ;
1144 [label="mse = 0.0\nsamples = 1\nvalue = 14.7"] ;
1143 -> 1144 ;
1145 [label="X[15] <= 0.828\nmse = 0.02\nsamples = 3\nvalue = 13.7"] ;
1143 -> 1145 ;
1146 [label="mse = 0.0\nsamples = 1\nvalue = 13.5"] ;
1145 -> 1146 ;
1147 [label="mse = 0.0\nsamples = 2\nvalue = 13.8"] ;
1145 -> 1147 ;
1148 [label="X[74] <= 3.624\nmse = 4.162\nsamples = 18\nvalue = 10.139"] ;
1136 -> 1148 ;
1149 [label="X[60] <= 46.141\nmse = 5.359\nsamples = 12\nvalue = 10.608"] ;
1148 -> 1149 ;
1150 [label="X[0] <= 2.5\nmse = 7.042\nsamples = 9\nvalue = 10.767"] ;
1149 -> 1150 ;
1151 [label="mse = 0.0\nsamples = 1\nvalue = 11.5"] ;
1150 -> 1151 ;
1152 [label="X[68] <= 78.0\nmse = 7.847\nsamples = 8\nvalue = 10.675"] ;
1150 -> 1152 ;
1153 [label="X[62] <= 60.901\nmse = 15.68\nsamples = 4\nvalue = 10.6"] ;
1152 -> 1153 ;
1154 [label="mse = 31.36\nsamples = 2\nvalue = 10.6"] ;
1153 -> 1154 ;
1155 [label="mse = -0.0\nsamples = 2\nvalue = 10.6"] ;
1153 -> 1155 ;
1156 [label="X[20] <= 230.459\nmse = 0.002\nsamples = 4\nvalue = 10.75"] ;
1152 -> 1156 ;
1157 [label="mse = 0.0\nsamples = 2\nvalue = 10.8"] ;
1156 -> 1157 ;
1158 [label="mse = 0.0\nsamples = 2\nvalue = 10.7"] ;
1156 -> 1158 ;
1159 [label="X[63] <= 51.506\nmse = 0.009\nsamples = 3\nvalue = 10.133"] ;
1149 -> 1159 ;
1160 [label="mse = 0.0\nsamples = 1\nvalue = 10.0"] ;
1159 -> 1160 ;
1161 [label="mse = 0.0\nsamples = 2\nvalue = 10.2"] ;
1159 -> 1161 ;
1162 [label="X[28] <= 91.173\nmse = 0.446\nsamples = 6\nvalue = 9.2"] ;
1148 -> 1162 ;
1163 [label="X[2] <= 58.086\nmse = 0.351\nsamples = 4\nvalue = 9.525"] ;
1162 -> 1163 ;
1164 [label="X[42] <= 79.812\nmse = 0.045\nsamples = 3\nvalue = 9.2"] ;
1163 -> 1164 ;
1165 [label="mse = 0.0\nsamples = 1\nvalue = 8.9"] ;
1164 -> 1165 ;
1166 [label="mse = -0.0\nsamples = 2\nvalue = 9.35"] ;
1164 -> 1166 ;
1167 [label="mse = 0.0\nsamples = 1\nvalue = 10.5"] ;
1163 -> 1167 ;
1168 [label="X[67] <= 96.974\nmse = 0.003\nsamples = 2\nvalue = 8.55"] ;
1162 -> 1168 ;
1169 [label="mse = 0.0\nsamples = 1\nvalue = 8.6"] ;
1168 -> 1169 ;
1170 [label="mse = -0.0\nsamples = 1\nvalue = 8.5"] ;
1168 -> 1170 ;
1171 [label="X[30] <= 69.767\nmse = 1.947\nsamples = 16\nvalue = 13.247"] ;
1135 -> 1171 ;
1172 [label="X[6] <= 0.645\nmse = 0.353\nsamples = 7\nvalue = 12.371"] ;
1171 -> 1172 ;
1173 [label="mse = 0.0\nsamples = 2\nvalue = 11.5"] ;
1172 -> 1173 ;
1174 [label="X[43] <= 51.777\nmse = 0.07\nsamples = 5\nvalue = 12.72"] ;
1172 -> 1174 ;
1175 [label="X[61] <= 76.0\nmse = 0.002\nsamples = 3\nvalue = 12.933"] ;
1174 -> 1175 ;
1176 [label="mse = 0.0\nsamples = 2\nvalue = 12.9"] ;
1175 -> 1176 ;
1177 [label="mse = 0.0\nsamples = 1\nvalue = 13.0"] ;
1175 -> 1177 ;
1178 [label="mse = 0.0\nsamples = 2\nvalue = 12.4"] ;
1174 -> 1178 ;
1179 [label="X[78] <= 2.163\nmse = 2.127\nsamples = 9\nvalue = 13.928"] ;
1171 -> 1179 ;
1180 [label="X[54] <= 43.831\nmse = 2.383\nsamples = 8\nvalue = 13.894"] ;
1179 -> 1180 ;
1181 [label="mse = 3.173\nsamples = 6\nvalue = 13.925"] ;
1180 -> 1181 ;
1182 [label="mse = 0.0\nsamples = 2\nvalue = 13.8"] ;
1180 -> 1182 ;
1183 [label="mse = -0.0\nsamples = 1\nvalue = 14.2"] ;
1179 -> 1183 ;
1184 [label="mse = 0.0\nsamples = 1\nvalue = 1.2"] ;
1108 -> 1184 ;
1185 [label="X[66] <= 0.688\nmse = 14.752\nsamples = 79\nvalue = 15.414"] ;
1077 -> 1185 ;
1186 [label="X[26] <= 0.441\nmse = 8.359\nsamples = 66\nvalue = 16.313"] ;
1185 -> 1186 ;
1187 [label="X[20] <= 45.931\nmse = 26.476\nsamples = 5\nvalue = 13.676"] ;
1186 -> 1187 ;
1188 [label="mse = 43.476\nsamples = 3\nvalue = 13.167"] ;
1187 -> 1188 ;
1189 [label="X[58] <= 7.251\nmse = 0.004\nsamples = 2\nvalue = 14.44"] ;
1187 -> 1189 ;
1190 [label="mse = 0.0\nsamples = 1\nvalue = 14.38"] ;
1189 -> 1190 ;
1191 [label="mse = -0.0\nsamples = 1\nvalue = 14.5"] ;
1189 -> 1191 ;
1192 [label="X[46] <= 0.688\nmse = 6.257\nsamples = 61\nvalue = 16.53"] ;
1186 -> 1192 ;
1193 [label="X[80] <= 0.905\nmse = 15.512\nsamples = 23\nvalue = 15.952"] ;
1192 -> 1193 ;
1194 [label="X[12] <= 641.889\nmse = 15.931\nsamples = 22\nvalue = 16.064"] ;
1193 -> 1194 ;
1195 [label="mse = 0.0\nsamples = 1\nvalue = 18.4"] ;
1194 -> 1195 ;
1196 [label="X[11] <= 812.842\nmse = 16.418\nsamples = 21\nvalue = 15.952"] ;
1194 -> 1196 ;
1197 [label="X[23] <= 145.312\nmse = 17.2\nsamples = 20\nvalue = 15.995"] ;
1196 -> 1197 ;
1198 [label="X[38] <= 4129.519\nmse = 0.062\nsamples = 3\nvalue = 16.133"] ;
1197 -> 1198 ;
1199 [label="mse = 0.0\nsamples = 1\nvalue = 16.2"] ;
1198 -> 1199 ;
1200 [label="mse = 0.09\nsamples = 2\nvalue = 16.1"] ;
1198 -> 1200 ;
1201 [label="mse = 20.221\nsamples = 17\nvalue = 15.971"] ;
1197 -> 1201 ;
1202 [label="mse = -0.0\nsamples = 1\nvalue = 15.1"] ;
1196 -> 1202 ;
1203 [label="mse = 0.0\nsamples = 1\nvalue = 13.5"] ;
1193 -> 1203 ;
1204 [label="X[40] <= 3722.575\nmse = 0.332\nsamples = 38\nvalue = 16.879"] ;
1192 -> 1204 ;
1205 [label="X[46] <= 0.692\nmse = 0.216\nsamples = 24\nvalue = 16.638"] ;
1204 -> 1205 ;
1206 [label="X[60] <= 11.798\nmse = 0.102\nsamples = 19\nvalue = 16.751"] ;
1205 -> 1206 ;
1207 [label="mse = 0.0\nsamples = 1\nvalue = 16.5"] ;
1206 -> 1207 ;
1208 [label="X[8] <= 29.209\nmse = 0.104\nsamples = 18\nvalue = 16.764"] ;
1206 -> 1208 ;
1209 [label="mse = 0.0\nsamples = 1\nvalue = 16.95"] ;
1208 -> 1209 ;
1210 [label="mse = 0.108\nsamples = 17\nvalue = 16.754"] ;
1208 -> 1210 ;
1211 [label="X[6] <= 0.483\nmse = 0.418\nsamples = 5\nvalue = 16.21"] ;
1205 -> 1211 ;
1212 [label="X[61] <= 77.588\nmse = 0.01\nsamples = 2\nvalue = 15.7"] ;
1211 -> 1212 ;
1213 [label="mse = 0.0\nsamples = 1\nvalue = 15.6"] ;
1212 -> 1213 ;
1214 [label="mse = 0.0\nsamples = 1\nvalue = 15.8"] ;
1212 -> 1214 ;
1215 [label="X[72] <= 4.4\nmse = 0.402\nsamples = 3\nvalue = 16.55"] ;
1211 -> 1215 ;
1216 [label="mse = 0.601\nsamples = 2\nvalue = 16.525"] ;
1215 -> 1216 ;
1217 [label="mse = 0.0\nsamples = 1\nvalue = 16.6"] ;
1215 -> 1217 ;
1218 [label="X[66] <= 0.682\nmse = 0.259\nsamples = 14\nvalue = 17.293"] ;
1204 -> 1218 ;
1219 [label="X[62] <= 43.871\nmse = 0.24\nsamples = 7\nvalue = 17.0"] ;
1218 -> 1219 ;
1220 [label="X[42] <= 56.467\nmse = 0.098\nsamples = 5\nvalue = 17.26"] ;
1219 -> 1220 ;
1221 [label="mse = 0.0\nsamples = 1\nvalue = 16.7"] ;
1220 -> 1221 ;
1222 [label="X[30] <= 69.809\nmse = 0.025\nsamples = 4\nvalue = 17.4"] ;
1220 -> 1222 ;
1223 [label="X[33] <= 184.782\nmse = 0.002\nsamples = 2\nvalue = 17.25"] ;
1222 -> 1223 ;
1224 [label="mse = 0.0\nsamples = 1\nvalue = 17.3"] ;
1223 -> 1224 ;
1225 [label="mse = 0.0\nsamples = 1\nvalue = 17.2"] ;
1223 -> 1225 ;
1226 [label="X[78] <= 2.132\nmse = 0.002\nsamples = 2\nvalue = 17.55"] ;
1222 -> 1226 ;
1227 [label="mse = 0.0\nsamples = 1\nvalue = 17.6"] ;
1226 -> 1227 ;
1228 [label="mse = -0.0\nsamples = 1\nvalue = 17.5"] ;
1226 -> 1228 ;
1229 [label="X[80] <= 0.922\nmse = 0.002\nsamples = 2\nvalue = 16.35"] ;
1219 -> 1229 ;
1230 [label="mse = 0.0\nsamples = 1\nvalue = 16.4"] ;
1229 -> 1230 ;
1231 [label="mse = -0.0\nsamples = 1\nvalue = 16.3"] ;
1229 -> 1231 ;
1232 [label="X[24] <= 110.787\nmse = 0.107\nsamples = 7\nvalue = 17.586"] ;
1218 -> 1232 ;
1233 [label="X[6] <= 0.455\nmse = 0.003\nsamples = 4\nvalue = 17.85"] ;
1232 -> 1233 ;
1234 [label="mse = 0.0\nsamples = 2\nvalue = 17.8"] ;
1233 -> 1234 ;
1235 [label="mse = -0.0\nsamples = 2\nvalue = 17.9"] ;
1233 -> 1235 ;
1236 [label="X[74] <= 4.201\nmse = 0.029\nsamples = 3\nvalue = 17.233"] ;
1232 -> 1236 ;
1237 [label="X[36] <= 0.312\nmse = 0.002\nsamples = 2\nvalue = 17.35"] ;
1236 -> 1237 ;
1238 [label="mse = 0.0\nsamples = 1\nvalue = 17.3"] ;
1237 -> 1238 ;
1239 [label="mse = -0.0\nsamples = 1\nvalue = 17.4"] ;
1237 -> 1239 ;
1240 [label="mse = 0.0\nsamples = 1\nvalue = 17.0"] ;
1236 -> 1240 ;
1241 [label="X[53] <= 17.751\nmse = 22.264\nsamples = 13\nvalue = 10.849"] ;
1185 -> 1241 ;
1242 [label="X[6] <= 0.731\nmse = 7.068\nsamples = 6\nvalue = 15.037"] ;
1241 -> 1242 ;
1243 [label="X[35] <= 0.751\nmse = 1.718\nsamples = 4\nvalue = 16.68"] ;
1242 -> 1243 ;
1244 [label="X[51] <= 31.402\nmse = 0.007\nsamples = 2\nvalue = 17.885"] ;
1243 -> 1244 ;
1245 [label="mse = 0.0\nsamples = 1\nvalue = 17.97"] ;
1244 -> 1245 ;
1246 [label="mse = 0.0\nsamples = 1\nvalue = 17.8"] ;
1244 -> 1246 ;
1247 [label="X[60] <= 12.395\nmse = 0.526\nsamples = 2\nvalue = 15.475"] ;
1243 -> 1247 ;
1248 [label="mse = 0.0\nsamples = 1\nvalue = 16.2"] ;
1247 -> 1248 ;
1249 [label="mse = 0.0\nsamples = 1\nvalue = 14.75"] ;
1247 -> 1249 ;
1250 [label="X[57] <= 21.705\nmse = 1.562\nsamples = 2\nvalue = 11.75"] ;
1242 -> 1250 ;
1251 [label="mse = 0.0\nsamples = 1\nvalue = 13.0"] ;
1250 -> 1251 ;
1252 [label="mse = 0.0\nsamples = 1\nvalue = 10.5"] ;
1250 -> 1252 ;
1253 [label="X[79] <= 0.486\nmse = 7.377\nsamples = 7\nvalue = 7.26"] ;
1241 -> 1253 ;
1254 [label="X[34] <= 4982.576\nmse = 0.003\nsamples = 2\nvalue = 3.155"] ;
1253 -> 1254 ;
1255 [label="mse = 0.0\nsamples = 1\nvalue = 3.1"] ;
1254 -> 1255 ;
1256 [label="mse = -0.0\nsamples = 1\nvalue = 3.21"] ;
1254 -> 1256 ;
1257 [label="X[8] <= 40.557\nmse = 0.89\nsamples = 5\nvalue = 8.902"] ;
1253 -> 1257 ;
1258 [label="mse = 0.0\nsamples = 1\nvalue = 7.51"] ;
1257 -> 1258 ;
1259 [label="mse = 0.508\nsamples = 4\nvalue = 9.25"] ;
1257 -> 1259 ;
1260 [label="X[6] <= 0.409\nmse = 14.563\nsamples = 161\nvalue = 6.2"] ;
1010 -> 1260 ;
1261 [label="X[78] <= 2.975\nmse = 16.538\nsamples = 38\nvalue = 9.679"] ;
1260 -> 1261 ;
1262 [label="X[80] <= 0.545\nmse = 13.484\nsamples = 31\nvalue = 10.738"] ;
1261 -> 1262 ;
1263 [label="X[18] <= 179.108\nmse = 12.595\nsamples = 30\nvalue = 10.53"] ;
1262 -> 1263 ;
1264 [label="X[32] <= 6023.86\nmse = 4.202\nsamples = 2\nvalue = 7.05"] ;
1263 -> 1264 ;
1265 [label="mse = 0.0\nsamples = 1\nvalue = 5.0"] ;
1264 -> 1265 ;
1266 [label="mse = 0.0\nsamples = 1\nvalue = 9.1"] ;
1264 -> 1266 ;
1267 [label="X[4] <= 33.62\nmse = 12.268\nsamples = 28\nvalue = 10.779"] ;
1263 -> 1267 ;
1268 [label="X[62] <= 96.892\nmse = 5.228\nsamples = 15\nvalue = 10.243"] ;
1267 -> 1268 ;
1269 [label="X[70] <= 52.608\nmse = 4.329\nsamples = 6\nvalue = 10.65"] ;
1268 -> 1269 ;
1270 [label="mse = 0.0\nsamples = 1\nvalue = 10.6"] ;
1269 -> 1270 ;
1271 [label="mse = 5.194\nsamples = 5\nvalue = 10.66"] ;
1269 -> 1271 ;
1272 [label="mse = 5.644\nsamples = 9\nvalue = 9.972"] ;
1268 -> 1272 ;
1273 [label="X[16] <= 0.667\nmse = 19.677\nsamples = 13\nvalue = 11.397"] ;
1267 -> 1273 ;
1274 [label="X[50] <= 33.899\nmse = 21.087\nsamples = 12\nvalue = 11.53"] ;
1273 -> 1274 ;
1275 [label="X[24] <= 143.569\nmse = 27.688\nsamples = 9\nvalue = 11.729"] ;
1274 -> 1275 ;
1276 [label="mse = 0.014\nsamples = 2\nvalue = 11.68"] ;
1275 -> 1276 ;
1277 [label="mse = 35.594\nsamples = 7\nvalue = 11.743"] ;
1275 -> 1277 ;
1278 [label="X[26] <= 0.562\nmse = 0.809\nsamples = 3\nvalue = 10.933"] ;
1274 -> 1278 ;
1279 [label="mse = 0.0\nsamples = 1\nvalue = 9.8"] ;
1278 -> 1279 ;
1280 [label="X[55] <= 0.361\nmse = 0.25\nsamples = 2\nvalue = 11.5"] ;
1278 -> 1280 ;
1281 [label="mse = 0.0\nsamples = 1\nvalue = 11.0"] ;
1280 -> 1281 ;
1282 [label="mse = 0.0\nsamples = 1\nvalue = 12.0"] ;
1280 -> 1282 ;
1283 [label="mse = -0.0\nsamples = 1\nvalue = 9.8"] ;
1273 -> 1283 ;
1284 [label="mse = -0.0\nsamples = 1\nvalue = 16.97"] ;
1262 -> 1284 ;
1285 [label="X[19] <= 135.875\nmse = 3.095\nsamples = 7\nvalue = 4.989"] ;
1261 -> 1285 ;
1286 [label="X[65] <= 0.331\nmse = 1.145\nsamples = 4\nvalue = 3.71"] ;
1285 -> 1286 ;
1287 [label="mse = 0.0\nsamples = 1\nvalue = 1.86"] ;
1286 -> 1287 ;
1288 [label="X[64] <= 65.905\nmse = 0.005\nsamples = 3\nvalue = 4.327"] ;
1286 -> 1288 ;
1289 [label="X[40] <= 2422.644\nmse = 0.001\nsamples = 2\nvalue = 4.375"] ;
1288 -> 1289 ;
1290 [label="mse = 0.0\nsamples = 1\nvalue = 4.4"] ;
1289 -> 1290 ;
1291 [label="mse = 0.0\nsamples = 1\nvalue = 4.35"] ;
1289 -> 1291 ;
1292 [label="mse = 0.0\nsamples = 1\nvalue = 4.23"] ;
1288 -> 1292 ;
1293 [label="X[80] <= 0.582\nmse = 0.611\nsamples = 3\nvalue = 6.693"] ;
1285 -> 1293 ;
1294 [label="mse = 0.0\nsamples = 1\nvalue = 5.6"] ;
1293 -> 1294 ;
1295 [label="X[45] <= 0.844\nmse = 0.02\nsamples = 2\nvalue = 7.24"] ;
1293 -> 1295 ;
1296 [label="mse = 0.0\nsamples = 1\nvalue = 7.38"] ;
1295 -> 1296 ;
1297 [label="mse = -0.0\nsamples = 1\nvalue = 7.1"] ;
1295 -> 1297 ;
1298 [label="X[7] <= 176.708\nmse = 9.06\nsamples = 123\nvalue = 5.126"] ;
1260 -> 1298 ;
1299 [label="X[59] <= 11.817\nmse = 6.434\nsamples = 122\nvalue = 4.977"] ;
1298 -> 1299 ;
1300 [label="X[36] <= 0.85\nmse = 2.132\nsamples = 17\nvalue = 2.275"] ;
1299 -> 1300 ;
1301 [label="X[74] <= 4.504\nmse = 0.459\nsamples = 12\nvalue = 1.434"] ;
1300 -> 1301 ;
1302 [label="X[70] <= 25.803\nmse = 0.209\nsamples = 7\nvalue = 1.921"] ;
1301 -> 1302 ;
